<?xml version="1.0"?>
<opencv_storage>
<cascade>
  <stageType>BOOST</stageType>
  <featureType>HAAR</featureType>
  <height>24</height>
  <width>32</width>
  <stageParams>
    <boostType>GAB</boostType>
    <minHitRate>9.9500000476837158e-01</minHitRate>
    <maxFalseAlarm>5.0000000000000000e-01</maxFalseAlarm>
    <weightTrimRate>9.4999998807907104e-01</weightTrimRate>
    <maxDepth>1</maxDepth>
    <maxWeakCount>100</maxWeakCount></stageParams>
  <featureParams>
    <maxCatCount>0</maxCatCount>
    <featSize>1</featSize>
    <mode>BASIC</mode></featureParams>
  <stageNum>20</stageNum>
  <stages>
    <!-- stage 0 -->
    <_>
      <maxWeakCount>5</maxWeakCount>
      <stageThreshold>-1.7796783447265625e+00</stageThreshold>
      <weakClassifiers>
        <_>
          <internalNodes>
            0 -1 42 1.2555134296417236e-01</internalNodes>
          <leafValues>
            -8.8013696670532227e-01 3.2934132218360901e-01</leafValues></_>
        <_>
          <internalNodes>
            0 -1 119 2.7183026075363159e-02</internalNodes>
          <leafValues>
            -6.0843664407730103e-01 6.3869541883468628e-01</leafValues></_>
        <_>
          <internalNodes>
            0 -1 90 -2.9331810772418976e-02</internalNodes>
          <leafValues>
            5.0751721858978271e-01 -4.9531084299087524e-01</leafValues></_>
        <_>
          <internalNodes>
            0 -1 163 -1.1585315223783255e-03</internalNodes>
          <leafValues>
            6.2042963504791260e-01 -4.6545091271400452e-01</leafValues></_>
        <_>
          <internalNodes>
            0 -1 152 -1.7686290666460991e-03</internalNodes>
          <leafValues>
            6.7747753858566284e-01 -3.3317106962203979e-01</leafValues></_></weakClassifiers></_>
    <!-- stage 1 -->
    <_>
      <maxWeakCount>6</maxWeakCount>
      <stageThreshold>-1.6560484170913696e+00</stageThreshold>
      <weakClassifiers>
        <_>
          <internalNodes>
            0 -1 55 1.1481363326311111e-01</internalNodes>
          <leafValues>
            -8.2747602462768555e-01 7.5903612375259399e-01</leafValues></_>
        <_>
          <internalNodes>
            0 -1 131 -6.6185876727104187e-02</internalNodes>
          <leafValues>
            4.4725766777992249e-01 -5.7473897933959961e-01</leafValues></_>
        <_>
          <internalNodes>
            0 -1 76 -4.8649501055479050e-02</internalNodes>
          <leafValues>
            2.5875616073608398e-01 -8.3320379257202148e-01</leafValues></_>
        <_>
          <internalNodes>
            0 -1 230 7.1015971479937434e-04</internalNodes>
          <leafValues>
            -4.2777487635612488e-01 4.4803708791732788e-01</leafValues></_>
        <_>
          <internalNodes>
            0 -1 174 5.7984185405075550e-03</internalNodes>
          <leafValues>
            -3.3533206582069397e-01 6.0140770673751831e-01</leafValues></_>
        <_>
          <internalNodes>
            0 -1 63 -4.0850071236491203e-03</internalNodes>
          <leafValues>
            4.6666547656059265e-01 -3.5570797324180603e-01</leafValues></_></weakClassifiers></_>
    <!-- stage 2 -->
    <_>
      <maxWeakCount>9</maxWeakCount>
      <stageThreshold>-1.8834338188171387e+00</stageThreshold>
      <weakClassifiers>
        <_>
          <internalNodes>
            0 -1 59 -9.7583830356597900e-02</internalNodes>
          <leafValues>
            4.4578313827514648e-01 -8.0670928955078125e-01</leafValues></_>
        <_>
          <internalNodes>
            0 -1 96 2.6216082274913788e-02</internalNodes>
          <leafValues>
            -5.2373224496841431e-01 4.6845039725303650e-01</leafValues></_>
        <_>
          <internalNodes>
            0 -1 87 -1.2155944108963013e-01</internalNodes>
          <leafValues>
            4.1347974538803101e-01 -5.1545637845993042e-01</leafValues></_>
        <_>
          <internalNodes>
            0 -1 176 -3.4571294672787189e-03</internalNodes>
          <leafValues>
            5.6190097332000732e-01 -3.6342567205429077e-01</leafValues></_>
        <_>
          <internalNodes>
            0 -1 198 -4.3214363977313042e-03</internalNodes>
          <leafValues>
            6.6212320327758789e-01 -2.3249487578868866e-01</leafValues></_>
        <_>
          <internalNodes>
            0 -1 180 2.6401154696941376e-02</internalNodes>
          <leafValues>
            -3.3997070789337158e-01 4.4073104858398438e-01</leafValues></_>
        <_>
          <internalNodes>
            0 -1 33 -2.6882164180278778e-02</internalNodes>
          <leafValues>
            4.6447426080703735e-01 -3.4765496850013733e-01</leafValues></_>
        <_>
          <internalNodes>
            0 -1 164 -1.8405625596642494e-03</internalNodes>
          <leafValues>
            6.4036369323730469e-01 -2.9361623525619507e-01</leafValues></_>
        <_>
          <internalNodes>
            0 -1 191 9.4550838693976402e-03</internalNodes>
          <leafValues>
            -2.0143885910511017e-01 7.5465989112854004e-01</leafValues></_></weakClassifiers></_>
    <!-- stage 3 -->
    <_>
      <maxWeakCount>9</maxWeakCount>
      <stageThreshold>-1.6476343870162964e+00</stageThreshold>
      <weakClassifiers>
        <_>
          <internalNodes>
            0 -1 58 4.5152626931667328e-02</internalNodes>
          <leafValues>
            -8.2070088386535645e-01 3.1481480598449707e-01</leafValues></_>
        <_>
          <internalNodes>
            0 -1 7 -2.6561541482806206e-02</internalNodes>
          <leafValues>
            1.1016780883073807e-01 -6.4280813932418823e-01</leafValues></_>
        <_>
          <internalNodes>
            0 -1 18 -2.2592612076550722e-03</internalNodes>
          <leafValues>
            3.3711799979209900e-01 -4.9448323249816895e-01</leafValues></_>
        <_>
          <internalNodes>
            0 -1 171 1.3466116972267628e-02</internalNodes>
          <leafValues>
            -2.1114379167556763e-01 7.1384805440902710e-01</leafValues></_>
        <_>
          <internalNodes>
            0 -1 182 1.3408821076154709e-02</internalNodes>
          <leafValues>
            -4.6796816587448120e-01 3.3879992365837097e-01</leafValues></_>
        <_>
          <internalNodes>
            0 -1 51 -3.4983392804861069e-02</internalNodes>
          <leafValues>
            2.3262023925781250e-01 -7.4208027124404907e-01</leafValues></_>
        <_>
          <internalNodes>
            0 -1 194 2.0955624058842659e-03</internalNodes>
          <leafValues>
            -3.2550385594367981e-01 5.2567148208618164e-01</leafValues></_>
        <_>
          <internalNodes>
            0 -1 201 -5.5564055219292641e-04</internalNodes>
          <leafValues>
            -6.8449193239212036e-01 1.9952994585037231e-01</leafValues></_>
        <_>
          <internalNodes>
            0 -1 106 -6.2923440709710121e-03</internalNodes>
          <leafValues>
            5.1755052804946899e-01 -2.5269219279289246e-01</leafValues></_></weakClassifiers></_>
    <!-- stage 4 -->
    <_>
      <maxWeakCount>7</maxWeakCount>
      <stageThreshold>-1.9696704149246216e+00</stageThreshold>
      <weakClassifiers>
        <_>
          <internalNodes>
            0 -1 135 4.6235635876655579e-02</internalNodes>
          <leafValues>
            -8.2747066020965576e-01 1.0638298094272614e-01</leafValues></_>
        <_>
          <internalNodes>
            0 -1 137 -1.0249051265418530e-02</internalNodes>
          <leafValues>
            2.2576102614402771e-01 -5.6142079830169678e-01</leafValues></_>
        <_>
          <internalNodes>
            0 -1 217 3.2621063292026520e-04</internalNodes>
          <leafValues>
            -5.0190389156341553e-01 2.7223286032676697e-01</leafValues></_>
        <_>
          <internalNodes>
            0 -1 205 -2.5523719377815723e-03</internalNodes>
          <leafValues>
            6.1997050046920776e-01 -2.6313251256942749e-01</leafValues></_>
        <_>
          <internalNodes>
            0 -1 61 -6.5391883254051208e-03</internalNodes>
          <leafValues>
            6.6676193475723267e-01 -2.2420895099639893e-01</leafValues></_>
        <_>
          <internalNodes>
            0 -1 209 8.2936761900782585e-03</internalNodes>
          <leafValues>
            -2.3316097259521484e-01 5.2886170148849487e-01</leafValues></_>
        <_>
          <internalNodes>
            0 -1 13 -7.5539834797382355e-03</internalNodes>
          <leafValues>
            6.7016345262527466e-01 -1.4555437862873077e-01</leafValues></_></weakClassifiers></_>
    <!-- stage 5 -->
    <_>
      <maxWeakCount>11</maxWeakCount>
      <stageThreshold>-1.6966055631637573e+00</stageThreshold>
      <weakClassifiers>
        <_>
          <internalNodes>
            0 -1 11 -3.2788436859846115e-02</internalNodes>
          <leafValues>
            7.0707067847251892e-02 -7.9288023710250854e-01</leafValues></_>
        <_>
          <internalNodes>
            0 -1 21 -1.2649293057620525e-03</internalNodes>
          <leafValues>
            6.3407458364963531e-02 -6.8085300922393799e-01</leafValues></_>
        <_>
          <internalNodes>
            0 -1 40 -4.0777251124382019e-03</internalNodes>
          <leafValues>
            5.8463370800018311e-01 -2.7408984303474426e-01</leafValues></_>
        <_>
          <internalNodes>
            0 -1 151 1.0065997485071421e-03</internalNodes>
          <leafValues>
            -3.2562258839607239e-01 4.0169188380241394e-01</leafValues></_>
        <_>
          <internalNodes>
            0 -1 223 6.6282227635383606e-05</internalNodes>
          <leafValues>
            -3.3782652020454407e-01 3.5037407279014587e-01</leafValues></_>
        <_>
          <internalNodes>
            0 -1 4 4.5798588544130325e-02</internalNodes>
          <leafValues>
            -2.3410168290138245e-01 5.0364011526107788e-01</leafValues></_>
        <_>
          <internalNodes>
            0 -1 125 2.5365337729454041e-02</internalNodes>
          <leafValues>
            -2.7175021171569824e-01 5.4339587688446045e-01</leafValues></_>
        <_>
          <internalNodes>
            0 -1 186 1.9924541935324669e-02</internalNodes>
          <leafValues>
            -2.6680231094360352e-01 5.4881113767623901e-01</leafValues></_>
        <_>
          <internalNodes>
            0 -1 100 -9.2376704560592771e-04</internalNodes>
          <leafValues>
            5.8464038372039795e-01 -2.1383127570152283e-01</leafValues></_>
        <_>
          <internalNodes>
            0 -1 143 -2.1033203229308128e-03</internalNodes>
          <leafValues>
            5.5835747718811035e-01 -1.9316601753234863e-01</leafValues></_>
        <_>
          <internalNodes>
            0 -1 46 9.4948452897369862e-04</internalNodes>
          <leafValues>
            -2.6545736193656921e-01 4.9067223072052002e-01</leafValues></_></weakClassifiers></_>
    <!-- stage 6 -->
    <_>
      <maxWeakCount>10</maxWeakCount>
      <stageThreshold>-1.2513712644577026e+00</stageThreshold>
      <weakClassifiers>
        <_>
          <internalNodes>
            0 -1 169 -3.6988038569688797e-02</internalNodes>
          <leafValues>
            7.1428573131561279e-01 -7.5190258026123047e-01</leafValues></_>
        <_>
          <internalNodes>
            0 -1 32 1.1944911442697048e-02</internalNodes>
          <leafValues>
            -4.3224209547042847e-01 2.0264101028442383e-01</leafValues></_>
        <_>
          <internalNodes>
            0 -1 206 1.9230262842029333e-03</internalNodes>
          <leafValues>
            -4.1262176632881165e-01 2.4486768245697021e-01</leafValues></_>
        <_>
          <internalNodes>
            0 -1 104 -5.3281505824998021e-04</internalNodes>
          <leafValues>
            4.1031500697135925e-01 -2.5597399473190308e-01</leafValues></_>
        <_>
          <internalNodes>
            0 -1 216 -4.1732182726264000e-03</internalNodes>
          <leafValues>
            4.1582816839218140e-01 -2.2393043339252472e-01</leafValues></_>
        <_>
          <internalNodes>
            0 -1 188 2.7047165203839540e-03</internalNodes>
          <leafValues>
            -1.4706510305404663e-01 5.3571164608001709e-01</leafValues></_>
        <_>
          <internalNodes>
            0 -1 155 -7.6084840111434460e-04</internalNodes>
          <leafValues>
            4.1416522860527039e-01 -2.4169325828552246e-01</leafValues></_>
        <_>
          <internalNodes>
            0 -1 15 -7.3830723762512207e-02</internalNodes>
          <leafValues>
            4.0120124816894531e-01 -2.8481855988502502e-01</leafValues></_>
        <_>
          <internalNodes>
            0 -1 1 -1.1744756251573563e-02</internalNodes>
          <leafValues>
            4.5025545358657837e-01 -2.2568161785602570e-01</leafValues></_>
        <_>
          <internalNodes>
            0 -1 193 9.8952325060963631e-04</internalNodes>
          <leafValues>
            -2.0594203472137451e-01 4.5857608318328857e-01</leafValues></_></weakClassifiers></_>
    <!-- stage 7 -->
    <_>
      <maxWeakCount>12</maxWeakCount>
      <stageThreshold>-1.6668086051940918e+00</stageThreshold>
      <weakClassifiers>
        <_>
          <internalNodes>
            0 -1 133 4.8089444637298584e-02</internalNodes>
          <leafValues>
            -8.0375427007675171e-01 -1.9018404185771942e-01</leafValues></_>
        <_>
          <internalNodes>
            0 -1 215 -1.2139957398176193e-02</internalNodes>
          <leafValues>
            3.8223406672477722e-01 -3.8657629489898682e-01</leafValues></_>
        <_>
          <internalNodes>
            0 -1 20 3.7190367584116757e-04</internalNodes>
          <leafValues>
            1.5932522714138031e-01 -5.6605213880538940e-01</leafValues></_>
        <_>
          <internalNodes>
            0 -1 43 7.8719690442085266e-02</internalNodes>
          <leafValues>
            -2.6982912421226501e-01 3.1733867526054382e-01</leafValues></_>
        <_>
          <internalNodes>
            0 -1 134 5.8781411498785019e-02</internalNodes>
          <leafValues>
            1.6298244893550873e-01 -7.8253835439682007e-01</leafValues></_>
        <_>
          <internalNodes>
            0 -1 157 -1.1053056456148624e-02</internalNodes>
          <leafValues>
            5.7239633798599243e-01 -2.0241574943065643e-01</leafValues></_>
        <_>
          <internalNodes>
            0 -1 231 3.0952808447182178e-03</internalNodes>
          <leafValues>
            -1.9630900025367737e-01 4.7332063317298889e-01</leafValues></_>
        <_>
          <internalNodes>
            0 -1 92 3.8614828372374177e-04</internalNodes>
          <leafValues>
            1.8928040564060211e-01 -6.3087016344070435e-01</leafValues></_>
        <_>
          <internalNodes>
            0 -1 80 4.8722572624683380e-02</internalNodes>
          <leafValues>
            -2.1799559891223907e-01 4.8354598879814148e-01</leafValues></_>
        <_>
          <internalNodes>
            0 -1 25 1.2415742501616478e-02</internalNodes>
          <leafValues>
            -2.5482112169265747e-01 4.1245386004447937e-01</leafValues></_>
        <_>
          <internalNodes>
            0 -1 50 -4.5095924288034439e-02</internalNodes>
          <leafValues>
            5.5720067024230957e-01 -1.5947467088699341e-01</leafValues></_>
        <_>
          <internalNodes>
            0 -1 49 -1.6236986266449094e-03</internalNodes>
          <leafValues>
            3.8999629020690918e-01 -2.4740794301033020e-01</leafValues></_></weakClassifiers></_>
    <!-- stage 8 -->
    <_>
      <maxWeakCount>12</maxWeakCount>
      <stageThreshold>-1.5623910427093506e+00</stageThreshold>
      <weakClassifiers>
        <_>
          <internalNodes>
            0 -1 136 -7.0314168930053711e-02</internalNodes>
          <leafValues>
            -7.5000002980232239e-02 -7.7051794528961182e-01</leafValues></_>
        <_>
          <internalNodes>
            0 -1 224 2.0416979168658145e-05</internalNodes>
          <leafValues>
            -5.4579764604568481e-01 3.5215962678194046e-02</leafValues></_>
        <_>
          <internalNodes>
            0 -1 172 2.6394021697342396e-03</internalNodes>
          <leafValues>
            -2.9638665914535522e-01 3.1016913056373596e-01</leafValues></_>
        <_>
          <internalNodes>
            0 -1 221 6.7775300703942776e-04</internalNodes>
          <leafValues>
            -1.8031451106071472e-01 5.1494389772415161e-01</leafValues></_>
        <_>
          <internalNodes>
            0 -1 99 1.8849056959152222e-01</internalNodes>
          <leafValues>
            -1.2866814434528351e-01 6.6700488328933716e-01</leafValues></_>
        <_>
          <internalNodes>
            0 -1 124 -5.8302180841565132e-03</internalNodes>
          <leafValues>
            4.5048871636390686e-01 -1.7256447672843933e-01</leafValues></_>
        <_>
          <internalNodes>
            0 -1 148 -7.8066572546958923e-02</internalNodes>
          <leafValues>
            1.8597832322120667e-01 -4.6193552017211914e-01</leafValues></_>
        <_>
          <internalNodes>
            0 -1 81 -1.7399588832631707e-03</internalNodes>
          <leafValues>
            5.5125206708908081e-01 -1.3288469612598419e-01</leafValues></_>
        <_>
          <internalNodes>
            0 -1 29 -4.3684337288141251e-03</internalNodes>
          <leafValues>
            3.7981429696083069e-01 -2.2223480045795441e-01</leafValues></_>
        <_>
          <internalNodes>
            0 -1 181 2.3861813824623823e-03</internalNodes>
          <leafValues>
            -1.5595296025276184e-01 4.7100043296813965e-01</leafValues></_>
        <_>
          <internalNodes>
            0 -1 196 -7.3897372931241989e-04</internalNodes>
          <leafValues>
            3.6982029676437378e-01 -2.4092927575111389e-01</leafValues></_>
        <_>
          <internalNodes>
            0 -1 199 -1.0225209407508373e-03</internalNodes>
          <leafValues>
            5.1549237966537476e-01 -1.7214396595954895e-01</leafValues></_></weakClassifiers></_>
    <!-- stage 9 -->
    <_>
      <maxWeakCount>12</maxWeakCount>
      <stageThreshold>-1.5834445953369141e+00</stageThreshold>
      <weakClassifiers>
        <_>
          <internalNodes>
            0 -1 70 3.0100770294666290e-02</internalNodes>
          <leafValues>
            -7.6656150817871094e-01 -1.4925372786819935e-02</leafValues></_>
        <_>
          <internalNodes>
            0 -1 105 -4.1570682078599930e-03</internalNodes>
          <leafValues>
            -3.9338697679340839e-03 -6.3842743635177612e-01</leafValues></_>
        <_>
          <internalNodes>
            0 -1 156 -2.8839861974120140e-02</internalNodes>
          <leafValues>
            3.6852654814720154e-01 -2.4140539765357971e-01</leafValues></_>
        <_>
          <internalNodes>
            0 -1 84 2.4149946868419647e-02</internalNodes>
          <leafValues>
            -1.3141772150993347e-01 6.3008981943130493e-01</leafValues></_>
        <_>
          <internalNodes>
            0 -1 179 -1.9084537401795387e-02</internalNodes>
          <leafValues>
            4.3846219778060913e-01 -1.7888826131820679e-01</leafValues></_>
        <_>
          <internalNodes>
            0 -1 67 7.8980168327689171e-03</internalNodes>
          <leafValues>
            -1.9978550076484680e-01 4.4820073246955872e-01</leafValues></_>
        <_>
          <internalNodes>
            0 -1 93 -7.1885320357978344e-04</internalNodes>
          <leafValues>
            -7.4204909801483154e-01 1.8208254873752594e-01</leafValues></_>
        <_>
          <internalNodes>
            0 -1 117 -1.0705601889640093e-03</internalNodes>
          <leafValues>
            3.8674452900886536e-01 -2.8216320276260376e-01</leafValues></_>
        <_>
          <internalNodes>
            0 -1 9 4.3463055044412613e-03</internalNodes>
          <leafValues>
            -1.9574739038944244e-01 4.3195557594299316e-01</leafValues></_>
        <_>
          <internalNodes>
            0 -1 226 2.9912742320448160e-04</internalNodes>
          <leafValues>
            -3.8429149985313416e-01 2.1473361551761627e-01</leafValues></_>
        <_>
          <internalNodes>
            0 -1 212 -9.0281181037425995e-03</internalNodes>
          <leafValues>
            2.4993738532066345e-01 -3.1801322102546692e-01</leafValues></_>
        <_>
          <internalNodes>
            0 -1 233 3.0493317171931267e-04</internalNodes>
          <leafValues>
            -2.0573362708091736e-01 4.1822415590286255e-01</leafValues></_></weakClassifiers></_>
    <!-- stage 10 -->
    <_>
      <maxWeakCount>12</maxWeakCount>
      <stageThreshold>-1.5591471195220947e+00</stageThreshold>
      <weakClassifiers>
        <_>
          <internalNodes>
            0 -1 165 -2.3434516042470932e-03</internalNodes>
          <leafValues>
            -3.2203391194343567e-01 -7.9101902246475220e-01</leafValues></_>
        <_>
          <internalNodes>
            0 -1 78 -6.8972969893366098e-04</internalNodes>
          <leafValues>
            2.2324453294277191e-01 -3.8685294985771179e-01</leafValues></_>
        <_>
          <internalNodes>
            0 -1 140 1.5951545210555196e-03</internalNodes>
          <leafValues>
            -2.5572782754898071e-01 3.2296031713485718e-01</leafValues></_>
        <_>
          <internalNodes>
            0 -1 102 -1.1213056743144989e-01</internalNodes>
          <leafValues>
            5.8672153949737549e-01 -1.3827700912952423e-01</leafValues></_>
        <_>
          <internalNodes>
            0 -1 128 -9.0808933600783348e-04</internalNodes>
          <leafValues>
            3.5692393779754639e-01 -2.0992831885814667e-01</leafValues></_>
        <_>
          <internalNodes>
            0 -1 229 1.2598669854924083e-04</internalNodes>
          <leafValues>
            -3.1139805912971497e-01 2.3002026975154877e-01</leafValues></_>
        <_>
          <internalNodes>
            0 -1 123 3.6083976738154888e-03</internalNodes>
          <leafValues>
            2.0077729225158691e-01 -4.4296547770500183e-01</leafValues></_>
        <_>
          <internalNodes>
            0 -1 73 -8.7281884625554085e-03</internalNodes>
          <leafValues>
            2.9830452799797058e-01 -3.2525709271430969e-01</leafValues></_>
        <_>
          <internalNodes>
            0 -1 91 2.4138232693076134e-03</internalNodes>
          <leafValues>
            -1.8904191255569458e-01 4.2637258768081665e-01</leafValues></_>
        <_>
          <internalNodes>
            0 -1 228 -5.8152677956968546e-04</internalNodes>
          <leafValues>
            3.5985994338989258e-01 -1.9402883946895599e-01</leafValues></_>
        <_>
          <internalNodes>
            0 -1 222 1.3341563753783703e-03</internalNodes>
          <leafValues>
            -2.0476265251636505e-01 4.2289772629737854e-01</leafValues></_>
        <_>
          <internalNodes>
            0 -1 114 -3.3741702791303396e-03</internalNodes>
          <leafValues>
            2.4367655813694000e-01 -2.8322818875312805e-01</leafValues></_></weakClassifiers></_>
    <!-- stage 11 -->
    <_>
      <maxWeakCount>14</maxWeakCount>
      <stageThreshold>-1.6171622276306152e+00</stageThreshold>
      <weakClassifiers>
        <_>
          <internalNodes>
            0 -1 121 5.6328188627958298e-02</internalNodes>
          <leafValues>
            -7.4924010038375854e-01 6.8421053886413574e-01</leafValues></_>
        <_>
          <internalNodes>
            0 -1 65 -8.5007492452859879e-03</internalNodes>
          <leafValues>
            2.7612742781639099e-01 -3.5803785920143127e-01</leafValues></_>
        <_>
          <internalNodes>
            0 -1 138 1.1120202252641320e-03</internalNodes>
          <leafValues>
            1.5558770298957825e-01 -5.1512563228607178e-01</leafValues></_>
        <_>
          <internalNodes>
            0 -1 2 -2.0774349570274353e-01</internalNodes>
          <leafValues>
            -7.7477288246154785e-01 8.9334920048713684e-02</leafValues></_>
        <_>
          <internalNodes>
            0 -1 132 -4.4872136786580086e-03</internalNodes>
          <leafValues>
            -7.1493160724639893e-01 1.3017563521862030e-01</leafValues></_>
        <_>
          <internalNodes>
            0 -1 190 -7.2965014260262251e-04</internalNodes>
          <leafValues>
            -7.4489897489547729e-01 9.5971621572971344e-02</leafValues></_>
        <_>
          <internalNodes>
            0 -1 204 1.9674615468829870e-03</internalNodes>
          <leafValues>
            7.7239811420440674e-02 -7.2997450828552246e-01</leafValues></_>
        <_>
          <internalNodes>
            0 -1 160 7.7518923208117485e-03</internalNodes>
          <leafValues>
            -1.8618097901344299e-01 4.2528244853019714e-01</leafValues></_>
        <_>
          <internalNodes>
            0 -1 187 2.8583903331309557e-03</internalNodes>
          <leafValues>
            -2.1809412539005280e-01 3.7058112025260925e-01</leafValues></_>
        <_>
          <internalNodes>
            0 -1 110 -8.8156145066022873e-03</internalNodes>
          <leafValues>
            2.9614567756652832e-01 -2.9266536235809326e-01</leafValues></_>
        <_>
          <internalNodes>
            0 -1 30 -2.8441803529858589e-02</internalNodes>
          <leafValues>
            3.4743002057075500e-01 -2.4024888873100281e-01</leafValues></_>
        <_>
          <internalNodes>
            0 -1 45 8.8033359497785568e-03</internalNodes>
          <leafValues>
            -2.4800811707973480e-01 3.4492939710617065e-01</leafValues></_>
        <_>
          <internalNodes>
            0 -1 0 -1.6118376515805721e-03</internalNodes>
          <leafValues>
            2.9217836260795593e-01 -2.6435098052024841e-01</leafValues></_>
        <_>
          <internalNodes>
            0 -1 214 -2.0352476276457310e-03</internalNodes>
          <leafValues>
            3.9047756791114807e-01 -1.9745649397373199e-01</leafValues></_></weakClassifiers></_>
    <!-- stage 12 -->
    <_>
      <maxWeakCount>15</maxWeakCount>
      <stageThreshold>-1.6683932542800903e+00</stageThreshold>
      <weakClassifiers>
        <_>
          <internalNodes>
            0 -1 122 -1.1885878443717957e-01</internalNodes>
          <leafValues>
            -2.6797387003898621e-01 -7.8849405050277710e-01</leafValues></_>
        <_>
          <internalNodes>
            0 -1 211 -2.8493504505604506e-03</internalNodes>
          <leafValues>
            8.8533848524093628e-02 -4.3043816089630127e-01</leafValues></_>
        <_>
          <internalNodes>
            0 -1 210 1.1765297967940569e-03</internalNodes>
          <leafValues>
            -2.0374521613121033e-01 3.2382342219352722e-01</leafValues></_>
        <_>
          <internalNodes>
            0 -1 202 -3.9111138321459293e-03</internalNodes>
          <leafValues>
            6.3512152433395386e-01 -9.4348594546318054e-02</leafValues></_>
        <_>
          <internalNodes>
            0 -1 79 -1.0587670658424031e-05</internalNodes>
          <leafValues>
            2.2459909319877625e-01 -2.9402139782905579e-01</leafValues></_>
        <_>
          <internalNodes>
            0 -1 130 2.2769276052713394e-02</internalNodes>
          <leafValues>
            -2.7005362510681152e-01 2.4183873832225800e-01</leafValues></_>
        <_>
          <internalNodes>
            0 -1 5 -8.3848252892494202e-02</internalNodes>
          <leafValues>
            -7.2350853681564331e-01 1.2014240771532059e-01</leafValues></_>
        <_>
          <internalNodes>
            0 -1 44 -4.3882220052182674e-03</internalNodes>
          <leafValues>
            5.2985364198684692e-01 -1.3056278228759766e-01</leafValues></_>
        <_>
          <internalNodes>
            0 -1 89 1.1193623766303062e-02</internalNodes>
          <leafValues>
            -2.1936565637588501e-01 3.4501427412033081e-01</leafValues></_>
        <_>
          <internalNodes>
            0 -1 82 5.5069021880626678e-02</internalNodes>
          <leafValues>
            -1.1404611915349960e-01 7.0412093400955200e-01</leafValues></_>
        <_>
          <internalNodes>
            0 -1 218 -2.2661667026113719e-04</internalNodes>
          <leafValues>
            -5.4869353771209717e-01 1.4971861243247986e-01</leafValues></_>
        <_>
          <internalNodes>
            0 -1 101 -7.5294384732842445e-03</internalNodes>
          <leafValues>
            5.3652131557464600e-01 -1.4324824512004852e-01</leafValues></_>
        <_>
          <internalNodes>
            0 -1 108 2.4109487421810627e-03</internalNodes>
          <leafValues>
            -1.9925570487976074e-01 3.4086939692497253e-01</leafValues></_>
        <_>
          <internalNodes>
            0 -1 145 -6.2888236716389656e-03</internalNodes>
          <leafValues>
            -6.8578076362609863e-01 9.8258845508098602e-02</leafValues></_>
        <_>
          <internalNodes>
            0 -1 10 -3.2553717494010925e-02</internalNodes>
          <leafValues>
            3.3892771601676941e-01 -2.1662722527980804e-01</leafValues></_></weakClassifiers></_>
    <!-- stage 13 -->
    <_>
      <maxWeakCount>12</maxWeakCount>
      <stageThreshold>-1.5498534440994263e+00</stageThreshold>
      <weakClassifiers>
        <_>
          <internalNodes>
            0 -1 118 1.0812938213348389e-01</internalNodes>
          <leafValues>
            -7.5000000000000000e-01 4.7826087474822998e-01</leafValues></_>
        <_>
          <internalNodes>
            0 -1 129 8.4629729390144348e-03</internalNodes>
          <leafValues>
            -2.9543936252593994e-01 5.1633846759796143e-01</leafValues></_>
        <_>
          <internalNodes>
            0 -1 103 -1.0445144772529602e-01</internalNodes>
          <leafValues>
            2.1850396692752838e-01 -2.9637044668197632e-01</leafValues></_>
        <_>
          <internalNodes>
            0 -1 86 -3.7142897490411997e-03</internalNodes>
          <leafValues>
            -8.1840550899505615e-01 7.9736180603504181e-02</leafValues></_>
        <_>
          <internalNodes>
            0 -1 8 1.4532727003097534e-01</internalNodes>
          <leafValues>
            1.0261185467243195e-01 -7.6090502738952637e-01</leafValues></_>
        <_>
          <internalNodes>
            0 -1 39 -3.4451700747013092e-02</internalNodes>
          <leafValues>
            2.1932691335678101e-01 -2.9954361915588379e-01</leafValues></_>
        <_>
          <internalNodes>
            0 -1 75 -2.0035702735185623e-02</internalNodes>
          <leafValues>
            5.9817796945571899e-01 -1.2833929061889648e-01</leafValues></_>
        <_>
          <internalNodes>
            0 -1 184 4.3337261304259300e-03</internalNodes>
          <leafValues>
            -1.5025545656681061e-01 4.6737530827522278e-01</leafValues></_>
        <_>
          <internalNodes>
            0 -1 200 9.2438224237412214e-04</internalNodes>
          <leafValues>
            -1.6847586631774902e-01 3.8912945985794067e-01</leafValues></_>
        <_>
          <internalNodes>
            0 -1 234 -9.3682785518467426e-04</internalNodes>
          <leafValues>
            -6.9767045974731445e-01 8.8773541152477264e-02</leafValues></_>
        <_>
          <internalNodes>
            0 -1 175 3.1542521901428699e-03</internalNodes>
          <leafValues>
            -1.6357615590095520e-01 3.8638117909431458e-01</leafValues></_>
        <_>
          <internalNodes>
            0 -1 232 -1.8492785748094320e-03</internalNodes>
          <leafValues>
            3.4387898445129395e-01 -1.8660555779933929e-01</leafValues></_></weakClassifiers></_>
    <!-- stage 14 -->
    <_>
      <maxWeakCount>13</maxWeakCount>
      <stageThreshold>-1.4798125028610229e+00</stageThreshold>
      <weakClassifiers>
        <_>
          <internalNodes>
            0 -1 112 -1.0775610059499741e-01</internalNodes>
          <leafValues>
            8.3333331346511841e-01 -7.4300831556320190e-01</leafValues></_>
        <_>
          <internalNodes>
            0 -1 34 7.3639154434204102e-03</internalNodes>
          <leafValues>
            -4.2258155345916748e-01 8.2971200346946716e-02</leafValues></_>
        <_>
          <internalNodes>
            0 -1 146 2.4827967863529921e-03</internalNodes>
          <leafValues>
            5.8831591159105301e-02 -9.3280386924743652e-01</leafValues></_>
        <_>
          <internalNodes>
            0 -1 19 5.5356521625071764e-04</internalNodes>
          <leafValues>
            8.7243326008319855e-02 -7.2741889953613281e-01</leafValues></_>
        <_>
          <internalNodes>
            0 -1 35 -1.3409560546278954e-02</internalNodes>
          <leafValues>
            -5.3178304433822632e-01 1.2672473490238190e-01</leafValues></_>
        <_>
          <internalNodes>
            0 -1 36 3.9754556491971016e-03</internalNodes>
          <leafValues>
            1.3567964732646942e-01 -4.5065706968307495e-01</leafValues></_>
        <_>
          <internalNodes>
            0 -1 41 9.9018365144729614e-03</internalNodes>
          <leafValues>
            -1.6608744859695435e-01 4.2043679952621460e-01</leafValues></_>
        <_>
          <internalNodes>
            0 -1 53 4.9743689596652985e-02</internalNodes>
          <leafValues>
            8.9091509580612183e-02 -8.5639858245849609e-01</leafValues></_>
        <_>
          <internalNodes>
            0 -1 150 2.0041856914758682e-03</internalNodes>
          <leafValues>
            -1.5085844695568085e-01 4.4171133637428284e-01</leafValues></_>
        <_>
          <internalNodes>
            0 -1 154 1.1385496705770493e-02</internalNodes>
          <leafValues>
            -1.3167114555835724e-01 4.4806036353111267e-01</leafValues></_>
        <_>
          <internalNodes>
            0 -1 115 1.0962118394672871e-02</internalNodes>
          <leafValues>
            -1.3039189577102661e-01 4.7398206591606140e-01</leafValues></_>
        <_>
          <internalNodes>
            0 -1 220 1.8079257279168814e-04</internalNodes>
          <leafValues>
            -2.5770491361618042e-01 2.3786284029483795e-01</leafValues></_>
        <_>
          <internalNodes>
            0 -1 47 1.2777072843164206e-03</internalNodes>
          <leafValues>
            -1.6153793036937714e-01 4.0998497605323792e-01</leafValues></_></weakClassifiers></_>
    <!-- stage 15 -->
    <_>
      <maxWeakCount>13</maxWeakCount>
      <stageThreshold>-1.6918482780456543e+00</stageThreshold>
      <weakClassifiers>
        <_>
          <internalNodes>
            0 -1 120 -3.4851640462875366e-01</internalNodes>
          <leafValues>
            1. -7.4188679456710815e-01</leafValues></_>
        <_>
          <internalNodes>
            0 -1 38 -1.2546195648610592e-04</internalNodes>
          <leafValues>
            1.2844933196902275e-02 -5.4030162096023560e-01</leafValues></_>
        <_>
          <internalNodes>
            0 -1 85 -5.6636361405253410e-03</internalNodes>
          <leafValues>
            -8.2582324743270874e-01 6.5750978887081146e-02</leafValues></_>
        <_>
          <internalNodes>
            0 -1 147 8.2924142479896545e-03</internalNodes>
          <leafValues>
            -6.7109070718288422e-02 7.7220034599304199e-01</leafValues></_>
        <_>
          <internalNodes>
            0 -1 185 -1.8012171611189842e-02</internalNodes>
          <leafValues>
            5.1935654878616333e-01 -1.1242840439081192e-01</leafValues></_>
        <_>
          <internalNodes>
            0 -1 167 1.5374604612588882e-02</internalNodes>
          <leafValues>
            -1.3189111649990082e-01 5.6092989444732666e-01</leafValues></_>
        <_>
          <internalNodes>
            0 -1 98 -2.6354199275374413e-02</internalNodes>
          <leafValues>
            5.8045804500579834e-01 -1.0522179305553436e-01</leafValues></_>
        <_>
          <internalNodes>
            0 -1 6 -5.6100944057106972e-03</internalNodes>
          <leafValues>
            4.3188485503196716e-01 -1.5183551609516144e-01</leafValues></_>
        <_>
          <internalNodes>
            0 -1 64 3.7465700879693031e-03</internalNodes>
          <leafValues>
            -1.6367650032043457e-01 4.0466460585594177e-01</leafValues></_>
        <_>
          <internalNodes>
            0 -1 166 -1.5408861450850964e-02</internalNodes>
          <leafValues>
            6.1508256196975708e-01 -1.0692335665225983e-01</leafValues></_>
        <_>
          <internalNodes>
            0 -1 144 2.3472660686820745e-03</internalNodes>
          <leafValues>
            -1.5391971170902252e-01 3.8112953305244446e-01</leafValues></_>
        <_>
          <internalNodes>
            0 -1 227 3.0578623991459608e-03</internalNodes>
          <leafValues>
            1.2486369907855988e-01 -8.2119899988174438e-01</leafValues></_>
        <_>
          <internalNodes>
            0 -1 225 -2.2596456110477448e-02</internalNodes>
          <leafValues>
            3.1761375069618225e-01 -2.3905400931835175e-01</leafValues></_></weakClassifiers></_>
    <!-- stage 16 -->
    <_>
      <maxWeakCount>14</maxWeakCount>
      <stageThreshold>-1.5922155380249023e+00</stageThreshold>
      <weakClassifiers>
        <_>
          <internalNodes>
            0 -1 197 9.8790496587753296e-02</internalNodes>
          <leafValues>
            -7.5899845361709595e-01 -5.2631579339504242e-02</leafValues></_>
        <_>
          <internalNodes>
            0 -1 213 2.8448432567529380e-04</internalNodes>
          <leafValues>
            -4.2098182439804077e-01 5.8871604502201080e-02</leafValues></_>
        <_>
          <internalNodes>
            0 -1 192 3.0834467615932226e-03</internalNodes>
          <leafValues>
            -1.5230508148670197e-01 4.0261802077293396e-01</leafValues></_>
        <_>
          <internalNodes>
            0 -1 116 -7.5118290260434151e-03</internalNodes>
          <leafValues>
            4.4217455387115479e-01 -1.4089450240135193e-01</leafValues></_>
        <_>
          <internalNodes>
            0 -1 71 -5.1241386681795120e-03</internalNodes>
          <leafValues>
            2.9539740085601807e-01 -1.9563619792461395e-01</leafValues></_>
        <_>
          <internalNodes>
            0 -1 16 -2.1016336977481842e-03</internalNodes>
          <leafValues>
            -5.4695171117782593e-01 1.0148710012435913e-01</leafValues></_>
        <_>
          <internalNodes>
            0 -1 88 -3.0194120481610298e-03</internalNodes>
          <leafValues>
            -8.4894859790802002e-01 9.3707554042339325e-02</leafValues></_>
        <_>
          <internalNodes>
            0 -1 149 -4.4947423157282174e-04</internalNodes>
          <leafValues>
            2.6859542727470398e-01 -2.3090720176696777e-01</leafValues></_>
        <_>
          <internalNodes>
            0 -1 83 -7.7802482992410660e-03</internalNodes>
          <leafValues>
            6.6957861185073853e-01 -1.0048238933086395e-01</leafValues></_>
        <_>
          <internalNodes>
            0 -1 68 3.1488719396293163e-03</internalNodes>
          <leafValues>
            -1.8736436963081360e-01 4.0271401405334473e-01</leafValues></_>
        <_>
          <internalNodes>
            0 -1 219 -1.8792581977322698e-04</internalNodes>
          <leafValues>
            2.5270861387252808e-01 -2.3008643090724945e-01</leafValues></_>
        <_>
          <internalNodes>
            0 -1 159 1.0932099074125290e-02</internalNodes>
          <leafValues>
            -1.1648477613925934e-01 5.2769708633422852e-01</leafValues></_>
        <_>
          <internalNodes>
            0 -1 177 -7.3910638689994812e-02</internalNodes>
          <leafValues>
            4.4177007675170898e-01 -1.3554811477661133e-01</leafValues></_>
        <_>
          <internalNodes>
            0 -1 195 1.7896043136715889e-03</internalNodes>
          <leafValues>
            -1.5543901920318604e-01 4.4632092118263245e-01</leafValues></_></weakClassifiers></_>
    <!-- stage 17 -->
    <_>
      <maxWeakCount>15</maxWeakCount>
      <stageThreshold>-1.4230284690856934e+00</stageThreshold>
      <weakClassifiers>
        <_>
          <internalNodes>
            0 -1 12 1.0691685974597931e-01</internalNodes>
          <leafValues>
            -7.4772036075592041e-01 5.7894736528396606e-01</leafValues></_>
        <_>
          <internalNodes>
            0 -1 56 -3.7199221551418304e-02</internalNodes>
          <leafValues>
            2.2364731132984161e-01 -3.3683350682258606e-01</leafValues></_>
        <_>
          <internalNodes>
            0 -1 141 8.2485266029834747e-03</internalNodes>
          <leafValues>
            1.0650598257780075e-01 -5.4498314857482910e-01</leafValues></_>
        <_>
          <internalNodes>
            0 -1 66 1.2360055698081851e-03</internalNodes>
          <leafValues>
            7.8526608645915985e-02 -6.5447419881820679e-01</leafValues></_>
        <_>
          <internalNodes>
            0 -1 168 -6.4722811803221703e-03</internalNodes>
          <leafValues>
            5.3447246551513672e-01 -8.0476909875869751e-02</leafValues></_>
        <_>
          <internalNodes>
            0 -1 26 -2.0775254815816879e-02</internalNodes>
          <leafValues>
            3.1749615073204041e-01 -1.8500176072120667e-01</leafValues></_>
        <_>
          <internalNodes>
            0 -1 14 -3.1430399976670742e-03</internalNodes>
          <leafValues>
            3.1847605109214783e-01 -2.0165562629699707e-01</leafValues></_>
        <_>
          <internalNodes>
            0 -1 203 -4.7160191461443901e-03</internalNodes>
          <leafValues>
            -8.2648140192031860e-01 6.6195808351039886e-02</leafValues></_>
        <_>
          <internalNodes>
            0 -1 127 2.4335600435733795e-02</internalNodes>
          <leafValues>
            -1.9594834744930267e-01 3.3943861722946167e-01</leafValues></_>
        <_>
          <internalNodes>
            0 -1 23 7.3569312691688538e-02</internalNodes>
          <leafValues>
            -1.8765006959438324e-01 3.1532117724418640e-01</leafValues></_>
        <_>
          <internalNodes>
            0 -1 48 3.2079482916742563e-03</internalNodes>
          <leafValues>
            -1.3275542855262756e-01 4.7727549076080322e-01</leafValues></_>
        <_>
          <internalNodes>
            0 -1 31 3.4868477087002248e-05</internalNodes>
          <leafValues>
            1.6997320950031281e-01 -3.9705261588096619e-01</leafValues></_>
        <_>
          <internalNodes>
            0 -1 24 -8.4481779485940933e-03</internalNodes>
          <leafValues>
            3.8326883316040039e-01 -1.6831099987030029e-01</leafValues></_>
        <_>
          <internalNodes>
            0 -1 69 1.2859632261097431e-03</internalNodes>
          <leafValues>
            2.1519379317760468e-01 -2.9377585649490356e-01</leafValues></_>
        <_>
          <internalNodes>
            0 -1 72 -1.0459495708346367e-02</internalNodes>
          <leafValues>
            4.9451947212219238e-01 -1.4346280694007874e-01</leafValues></_></weakClassifiers></_>
    <!-- stage 18 -->
    <_>
      <maxWeakCount>19</maxWeakCount>
      <stageThreshold>-1.5770306587219238e+00</stageThreshold>
      <weakClassifiers>
        <_>
          <internalNodes>
            0 -1 170 -1.3595739379525185e-02</internalNodes>
          <leafValues>
            6.0000002384185791e-01 -7.4393939971923828e-01</leafValues></_>
        <_>
          <internalNodes>
            0 -1 189 -8.0870429519563913e-04</internalNodes>
          <leafValues>
            1.2255512923002243e-01 -3.5908216238021851e-01</leafValues></_>
        <_>
          <internalNodes>
            0 -1 173 3.0767032876610756e-03</internalNodes>
          <leafValues>
            -1.4564219117164612e-01 3.7741503119468689e-01</leafValues></_>
        <_>
          <internalNodes>
            0 -1 22 -4.1766124195419252e-04</internalNodes>
          <leafValues>
            -4.3419554829597473e-01 1.3394930958747864e-01</leafValues></_>
        <_>
          <internalNodes>
            0 -1 111 -6.0612834990024567e-02</internalNodes>
          <leafValues>
            -8.7757891416549683e-01 5.8650854974985123e-02</leafValues></_>
        <_>
          <internalNodes>
            0 -1 208 -3.9692446589469910e-03</internalNodes>
          <leafValues>
            4.3485924601554871e-01 -1.5319107472896576e-01</leafValues></_>
        <_>
          <internalNodes>
            0 -1 107 7.3630198836326599e-02</internalNodes>
          <leafValues>
            7.2120867669582367e-02 -8.9192676544189453e-01</leafValues></_>
        <_>
          <internalNodes>
            0 -1 161 -5.9496317990124226e-03</internalNodes>
          <leafValues>
            5.2834254503250122e-01 -1.2741470336914063e-01</leafValues></_>
        <_>
          <internalNodes>
            0 -1 94 -1.4242184348404408e-02</internalNodes>
          <leafValues>
            2.7451729774475098e-01 -2.2746759653091431e-01</leafValues></_>
        <_>
          <internalNodes>
            0 -1 126 -1.7590166535228491e-03</internalNodes>
          <leafValues>
            3.6080768704414368e-01 -1.6143032908439636e-01</leafValues></_>
        <_>
          <internalNodes>
            0 -1 153 -3.6222063936293125e-03</internalNodes>
          <leafValues>
            3.4486764669418335e-01 -2.0171605050563812e-01</leafValues></_>
        <_>
          <internalNodes>
            0 -1 27 -3.9231097325682640e-03</internalNodes>
          <leafValues>
            1.9993056356906891e-01 -3.0444353818893433e-01</leafValues></_>
        <_>
          <internalNodes>
            0 -1 113 -7.8515466302633286e-03</internalNodes>
          <leafValues>
            3.6642175912857056e-01 -1.6544321179389954e-01</leafValues></_>
        <_>
          <internalNodes>
            0 -1 109 -3.3370018005371094e-02</internalNodes>
          <leafValues>
            2.6236349344253540e-01 -2.3536001145839691e-01</leafValues></_>
        <_>
          <internalNodes>
            0 -1 97 2.4579279124736786e-03</internalNodes>
          <leafValues>
            -1.6076031327247620e-01 3.8499107956886292e-01</leafValues></_>
        <_>
          <internalNodes>
            0 -1 158 1.0815433925017715e-03</internalNodes>
          <leafValues>
            9.1467939317226410e-02 -6.9463157653808594e-01</leafValues></_>
        <_>
          <internalNodes>
            0 -1 95 6.0105245211161673e-05</internalNodes>
          <leafValues>
            1.3925267755985260e-01 -4.0371540188789368e-01</leafValues></_>
        <_>
          <internalNodes>
            0 -1 57 5.3050403948873281e-04</internalNodes>
          <leafValues>
            -1.8031141161918640e-01 3.4429523348808289e-01</leafValues></_>
        <_>
          <internalNodes>
            0 -1 3 8.0690689384937286e-02</internalNodes>
          <leafValues>
            1.1475133150815964e-01 -6.1786788702011108e-01</leafValues></_></weakClassifiers></_>
    <!-- stage 19 -->
    <_>
      <maxWeakCount>15</maxWeakCount>
      <stageThreshold>-1.4541679620742798e+00</stageThreshold>
      <weakClassifiers>
        <_>
          <internalNodes>
            0 -1 142 -5.5717714130878448e-02</internalNodes>
          <leafValues>
            6.2500000000000000e-01 -7.4526154994964600e-01</leafValues></_>
        <_>
          <internalNodes>
            0 -1 139 -6.3482165336608887e-02</internalNodes>
          <leafValues>
            2.1539430320262909e-01 -3.3455273509025574e-01</leafValues></_>
        <_>
          <internalNodes>
            0 -1 77 2.4660818278789520e-02</internalNodes>
          <leafValues>
            -1.3888053596019745e-01 4.4721871614456177e-01</leafValues></_>
        <_>
          <internalNodes>
            0 -1 17 -3.8835902232676744e-03</internalNodes>
          <leafValues>
            3.4739124774932861e-01 -1.8192544579505920e-01</leafValues></_>
        <_>
          <internalNodes>
            0 -1 52 -2.9113646596670151e-03</internalNodes>
          <leafValues>
            -9.2615902423858643e-01 6.9747008383274078e-02</leafValues></_>
        <_>
          <internalNodes>
            0 -1 37 -4.3854152318090200e-04</internalNodes>
          <leafValues>
            2.7940192818641663e-01 -2.3153099417686462e-01</leafValues></_>
        <_>
          <internalNodes>
            0 -1 162 -2.2577829658985138e-02</internalNodes>
          <leafValues>
            7.9214167594909668e-01 -9.7790203988552094e-02</leafValues></_>
        <_>
          <internalNodes>
            0 -1 178 3.3709667623043060e-03</internalNodes>
          <leafValues>
            1.1481671035289764e-01 -6.4259755611419678e-01</leafValues></_>
        <_>
          <internalNodes>
            0 -1 74 -2.9833745211362839e-03</internalNodes>
          <leafValues>
            -4.0208649635314941e-01 1.8845807015895844e-01</leafValues></_>
        <_>
          <internalNodes>
            0 -1 183 -4.0193618042394519e-04</internalNodes>
          <leafValues>
            3.1628870964050293e-01 -2.1903763711452484e-01</leafValues></_>
        <_>
          <internalNodes>
            0 -1 60 4.8769041313789785e-04</internalNodes>
          <leafValues>
            -2.6163759827613831e-01 2.4659489095211029e-01</leafValues></_>
        <_>
          <internalNodes>
            0 -1 62 5.3561490494757891e-04</internalNodes>
          <leafValues>
            -1.8377485871315002e-01 3.5699859261512756e-01</leafValues></_>
        <_>
          <internalNodes>
            0 -1 54 2.4473080039024353e-01</internalNodes>
          <leafValues>
            -9.2960558831691742e-02 7.4025458097457886e-01</leafValues></_>
        <_>
          <internalNodes>
            0 -1 28 1.2924247421324253e-03</internalNodes>
          <leafValues>
            -1.8514759838581085e-01 3.9491444826126099e-01</leafValues></_>
        <_>
          <internalNodes>
            0 -1 207 -8.3457767963409424e-02</internalNodes>
          <leafValues>
            4.9959349632263184e-01 -1.3972148299217224e-01</leafValues></_></weakClassifiers></_></stages>
  <features>
    <_>
      <rects>
        <_>
          0 0 2 24 -1.</_>
        <_>
          0 0 1 12 2.</_>
        <_>
          1 12 1 12 2.</_></rects>
      <tilted>0</tilted></_>
    <_>
      <rects>
        <_>
          0 0 4 22 -1.</_>
        <_>
          0 0 2 11 2.</_>
        <_>
          2 11 2 11 2.</_></rects>
      <tilted>0</tilted></_>
    <_>
      <rects>
        <_>
          0 0 32 19 -1.</_>
        <_>
          16 0 16 19 2.</_></rects>
      <tilted>0</tilted></_>
    <_>
      <rects>
        <_>
          0 1 19 16 -1.</_>
        <_>
          0 9 19 8 2.</_></rects>
      <tilted>0</tilted></_>
    <_>
      <rects>
        <_>
          0 2 21 11 -1.</_>
        <_>
          7 2 7 11 3.</_></rects>
      <tilted>0</tilted></_>
    <_>
      <rects>
        <_>
          0 2 18 9 -1.</_>
        <_>
          0 5 18 3 3.</_></rects>
      <tilted>0</tilted></_>
    <_>
      <rects>
        <_>
          0 2 30 3 -1.</_>
        <_>
          0 3 30 1 3.</_></rects>
      <tilted>0</tilted></_>
    <_>
      <rects>
        <_>
          0 3 24 9 -1.</_>
        <_>
          0 6 24 3 3.</_></rects>
      <tilted>0</tilted></_>
    <_>
      <rects>
        <_>
          0 4 30 14 -1.</_>
        <_>
          0 11 30 7 2.</_></rects>
      <tilted>0</tilted></_>
    <_>
      <rects>
        <_>
          0 6 9 3 -1.</_>
        <_>
          3 6 3 3 3.</_></rects>
      <tilted>0</tilted></_>
    <_>
      <rects>
        <_>
          0 6 8 18 -1.</_>
        <_>
          0 6 4 9 2.</_>
        <_>
          4 15 4 9 2.</_></rects>
      <tilted>0</tilted></_>
    <_>
      <rects>
        <_>
          0 8 6 16 -1.</_>
        <_>
          0 8 3 8 2.</_>
        <_>
          3 16 3 8 2.</_></rects>
      <tilted>0</tilted></_>
    <_>
      <rects>
        <_>
          0 8 25 6 -1.</_>
        <_>
          0 10 25 2 3.</_></rects>
      <tilted>0</tilted></_>
    <_>
      <rects>
        <_>
          0 11 22 3 -1.</_>
        <_>
          0 12 22 1 3.</_></rects>
      <tilted>0</tilted></_>
    <_>
      <rects>
        <_>
          0 12 4 8 -1.</_>
        <_>
          0 12 2 4 2.</_>
        <_>
          2 16 2 4 2.</_></rects>
      <tilted>0</tilted></_>
    <_>
      <rects>
        <_>
          0 14 32 6 -1.</_>
        <_>
          0 17 32 3 2.</_></rects>
      <tilted>0</tilted></_>
    <_>
      <rects>
        <_>
          0 20 2 4 -1.</_>
        <_>
          0 22 2 2 2.</_></rects>
      <tilted>0</tilted></_>
    <_>
      <rects>
        <_>
          0 20 6 2 -1.</_>
        <_>
          3 20 3 2 2.</_></rects>
      <tilted>0</tilted></_>
    <_>
      <rects>
        <_>
          0 20 8 3 -1.</_>
        <_>
          4 20 4 3 2.</_></rects>
      <tilted>0</tilted></_>
    <_>
      <rects>
        <_>
          0 21 2 3 -1.</_>
        <_>
          1 21 1 3 2.</_></rects>
      <tilted>0</tilted></_>
    <_>
      <rects>
        <_>
          0 21 8 3 -1.</_>
        <_>
          4 21 4 3 2.</_></rects>
      <tilted>0</tilted></_>
    <_>
      <rects>
        <_>
          0 22 18 2 -1.</_>
        <_>
          9 22 9 2 2.</_></rects>
      <tilted>0</tilted></_>
    <_>
      <rects>
        <_>
          0 23 6 1 -1.</_>
        <_>
          2 23 2 1 3.</_></rects>
      <tilted>0</tilted></_>
    <_>
      <rects>
        <_>
          1 1 21 14 -1.</_>
        <_>
          8 1 7 14 3.</_></rects>
      <tilted>0</tilted></_>
    <_>
      <rects>
        <_>
          1 5 10 4 -1.</_>
        <_>
          6 5 5 4 2.</_></rects>
      <tilted>0</tilted></_>
    <_>
      <rects>
        <_>
          1 10 8 8 -1.</_>
        <_>
          5 10 4 8 2.</_></rects>
      <tilted>0</tilted></_>
    <_>
      <rects>
        <_>
          1 11 26 9 -1.</_>
        <_>
          1 14 26 3 3.</_></rects>
      <tilted>0</tilted></_>
    <_>
      <rects>
        <_>
          1 14 5 9 -1.</_>
        <_>
          1 17 5 3 3.</_></rects>
      <tilted>0</tilted></_>
    <_>
      <rects>
        <_>
          1 15 4 8 -1.</_>
        <_>
          1 15 2 4 2.</_>
        <_>
          3 19 2 4 2.</_></rects>
      <tilted>0</tilted></_>
    <_>
      <rects>
        <_>
          1 17 9 2 -1.</_>
        <_>
          4 17 3 2 3.</_></rects>
      <tilted>0</tilted></_>
    <_>
      <rects>
        <_>
          1 17 29 6 -1.</_>
        <_>
          1 19 29 2 3.</_></rects>
      <tilted>0</tilted></_>
    <_>
      <rects>
        <_>
          1 22 2 2 -1.</_>
        <_>
          2 22 1 2 2.</_></rects>
      <tilted>0</tilted></_>
    <_>
      <rects>
        <_>
          2 3 24 1 -1.</_>
        <_>
          10 3 8 1 3.</_></rects>
      <tilted>0</tilted></_>
    <_>
      <rects>
        <_>
          2 3 22 6 -1.</_>
        <_>
          2 6 22 3 2.</_></rects>
      <tilted>0</tilted></_>
    <_>
      <rects>
        <_>
          2 5 6 12 -1.</_>
        <_>
          2 5 3 6 2.</_>
        <_>
          5 11 3 6 2.</_></rects>
      <tilted>0</tilted></_>
    <_>
      <rects>
        <_>
          2 6 12 4 -1.</_>
        <_>
          2 8 12 2 2.</_></rects>
      <tilted>0</tilted></_>
    <_>
      <rects>
        <_>
          2 6 29 4 -1.</_>
        <_>
          2 8 29 2 2.</_></rects>
      <tilted>0</tilted></_>
    <_>
      <rects>
        <_>
          2 16 4 2 -1.</_>
        <_>
          2 16 2 1 2.</_>
        <_>
          4 17 2 1 2.</_></rects>
      <tilted>0</tilted></_>
    <_>
      <rects>
        <_>
          2 20 2 4 -1.</_>
        <_>
          3 20 1 4 2.</_></rects>
      <tilted>0</tilted></_>
    <_>
      <rects>
        <_>
          3 4 17 9 -1.</_>
        <_>
          3 7 17 3 3.</_></rects>
      <tilted>0</tilted></_>
    <_>
      <rects>
        <_>
          3 6 6 3 -1.</_>
        <_>
          5 6 2 3 3.</_></rects>
      <tilted>0</tilted></_>
    <_>
      <rects>
        <_>
          3 7 9 4 -1.</_>
        <_>
          6 7 3 4 3.</_></rects>
      <tilted>0</tilted></_>
    <_>
      <rects>
        <_>
          3 7 25 12 -1.</_>
        <_>
          3 11 25 4 3.</_></rects>
      <tilted>0</tilted></_>
    <_>
      <rects>
        <_>
          3 8 28 9 -1.</_>
        <_>
          3 11 28 3 3.</_></rects>
      <tilted>0</tilted></_>
    <_>
      <rects>
        <_>
          3 11 10 2 -1.</_>
        <_>
          3 11 5 1 2.</_>
        <_>
          8 12 5 1 2.</_></rects>
      <tilted>0</tilted></_>
    <_>
      <rects>
        <_>
          3 14 12 8 -1.</_>
        <_>
          7 14 4 8 3.</_></rects>
      <tilted>0</tilted></_>
    <_>
      <rects>
        <_>
          3 15 6 2 -1.</_>
        <_>
          3 15 3 1 2.</_>
        <_>
          6 16 3 1 2.</_></rects>
      <tilted>0</tilted></_>
    <_>
      <rects>
        <_>
          3 16 6 2 -1.</_>
        <_>
          3 16 3 1 2.</_>
        <_>
          6 17 3 1 2.</_></rects>
      <tilted>0</tilted></_>
    <_>
      <rects>
        <_>
          3 17 6 4 -1.</_>
        <_>
          3 17 3 2 2.</_>
        <_>
          6 19 3 2 2.</_></rects>
      <tilted>0</tilted></_>
    <_>
      <rects>
        <_>
          3 18 14 2 -1.</_>
        <_>
          3 18 7 1 2.</_>
        <_>
          10 19 7 1 2.</_></rects>
      <tilted>0</tilted></_>
    <_>
      <rects>
        <_>
          3 18 21 6 -1.</_>
        <_>
          3 20 21 2 3.</_></rects>
      <tilted>0</tilted></_>
    <_>
      <rects>
        <_>
          4 0 26 24 -1.</_>
        <_>
          4 12 26 12 2.</_></rects>
      <tilted>0</tilted></_>
    <_>
      <rects>
        <_>
          4 1 3 2 -1.</_>
        <_>
          5 1 1 2 3.</_></rects>
      <tilted>0</tilted></_>
    <_>
      <rects>
        <_>
          4 4 9 20 -1.</_>
        <_>
          7 4 3 20 3.</_></rects>
      <tilted>0</tilted></_>
    <_>
      <rects>
        <_>
          4 4 17 15 -1.</_>
        <_>
          4 9 17 5 3.</_></rects>
      <tilted>0</tilted></_>
    <_>
      <rects>
        <_>
          4 7 11 12 -1.</_>
        <_>
          4 11 11 4 3.</_></rects>
      <tilted>0</tilted></_>
    <_>
      <rects>
        <_>
          4 8 26 6 -1.</_>
        <_>
          4 10 26 2 3.</_></rects>
      <tilted>0</tilted></_>
    <_>
      <rects>
        <_>
          4 10 1 2 -1.</_>
        <_>
          4 11 1 1 2.</_></rects>
      <tilted>0</tilted></_>
    <_>
      <rects>
        <_>
          4 10 13 6 -1.</_>
        <_>
          4 12 13 2 3.</_></rects>
      <tilted>0</tilted></_>
    <_>
      <rects>
        <_>
          4 11 12 8 -1.</_>
        <_>
          4 15 12 4 2.</_></rects>
      <tilted>0</tilted></_>
    <_>
      <rects>
        <_>
          4 13 9 1 -1.</_>
        <_>
          7 13 3 1 3.</_></rects>
      <tilted>0</tilted></_>
    <_>
      <rects>
        <_>
          4 13 11 3 -1.</_>
        <_>
          4 14 11 1 3.</_></rects>
      <tilted>0</tilted></_>
    <_>
      <rects>
        <_>
          4 14 1 3 -1.</_>
        <_>
          4 15 1 1 3.</_></rects>
      <tilted>0</tilted></_>
    <_>
      <rects>
        <_>
          4 14 2 9 -1.</_>
        <_>
          4 17 2 3 3.</_></rects>
      <tilted>0</tilted></_>
    <_>
      <rects>
        <_>
          4 19 18 2 -1.</_>
        <_>
          4 19 9 1 2.</_>
        <_>
          13 20 9 1 2.</_></rects>
      <tilted>0</tilted></_>
    <_>
      <rects>
        <_>
          4 21 20 3 -1.</_>
        <_>
          4 22 20 1 3.</_></rects>
      <tilted>0</tilted></_>
    <_>
      <rects>
        <_>
          4 23 8 1 -1.</_>
        <_>
          8 23 4 1 2.</_></rects>
      <tilted>0</tilted></_>
    <_>
      <rects>
        <_>
          5 7 9 3 -1.</_>
        <_>
          8 7 3 3 3.</_></rects>
      <tilted>0</tilted></_>
    <_>
      <rects>
        <_>
          5 8 9 1 -1.</_>
        <_>
          8 8 3 1 3.</_></rects>
      <tilted>0</tilted></_>
    <_>
      <rects>
        <_>
          5 9 15 2 -1.</_>
        <_>
          5 10 15 1 2.</_></rects>
      <tilted>0</tilted></_>
    <_>
      <rects>
        <_>
          5 10 19 3 -1.</_>
        <_>
          5 11 19 1 3.</_></rects>
      <tilted>0</tilted></_>
    <_>
      <rects>
        <_>
          5 17 15 3 -1.</_>
        <_>
          10 17 5 3 3.</_></rects>
      <tilted>0</tilted></_>
    <_>
      <rects>
        <_>
          5 18 3 6 -1.</_>
        <_>
          5 20 3 2 3.</_></rects>
      <tilted>0</tilted></_>
    <_>
      <rects>
        <_>
          6 4 13 6 -1.</_>
        <_>
          6 6 13 2 3.</_></rects>
      <tilted>0</tilted></_>
    <_>
      <rects>
        <_>
          6 7 15 3 -1.</_>
        <_>
          6 8 15 1 3.</_></rects>
      <tilted>0</tilted></_>
    <_>
      <rects>
        <_>
          6 8 9 9 -1.</_>
        <_>
          6 11 9 3 3.</_></rects>
      <tilted>0</tilted></_>
    <_>
      <rects>
        <_>
          6 8 24 16 -1.</_>
        <_>
          6 16 24 8 2.</_></rects>
      <tilted>0</tilted></_>
    <_>
      <rects>
        <_>
          6 11 20 3 -1.</_>
        <_>
          16 11 10 3 2.</_></rects>
      <tilted>0</tilted></_>
    <_>
      <rects>
        <_>
          6 19 1 3 -1.</_>
        <_>
          6 20 1 1 3.</_></rects>
      <tilted>0</tilted></_>
    <_>
      <rects>
        <_>
          6 21 2 1 -1.</_>
        <_>
          7 21 1 1 2.</_></rects>
      <tilted>0</tilted></_>
    <_>
      <rects>
        <_>
          7 0 17 6 -1.</_>
        <_>
          7 2 17 2 3.</_></rects>
      <tilted>0</tilted></_>
    <_>
      <rects>
        <_>
          7 7 3 4 -1.</_>
        <_>
          8 7 1 4 3.</_></rects>
      <tilted>0</tilted></_>
    <_>
      <rects>
        <_>
          7 7 24 8 -1.</_>
        <_>
          7 7 12 4 2.</_>
        <_>
          19 11 12 4 2.</_></rects>
      <tilted>0</tilted></_>
    <_>
      <rects>
        <_>
          7 8 6 2 -1.</_>
        <_>
          9 8 2 2 3.</_></rects>
      <tilted>0</tilted></_>
    <_>
      <rects>
        <_>
          7 8 21 2 -1.</_>
        <_>
          14 8 7 2 3.</_></rects>
      <tilted>0</tilted></_>
    <_>
      <rects>
        <_>
          7 8 10 2 -1.</_>
        <_>
          7 9 10 1 2.</_></rects>
      <tilted>0</tilted></_>
    <_>
      <rects>
        <_>
          7 10 2 12 -1.</_>
        <_>
          8 10 1 12 2.</_></rects>
      <tilted>0</tilted></_>
    <_>
      <rects>
        <_>
          7 11 20 12 -1.</_>
        <_>
          7 17 20 6 2.</_></rects>
      <tilted>0</tilted></_>
    <_>
      <rects>
        <_>
          7 12 2 6 -1.</_>
        <_>
          7 12 1 3 2.</_>
        <_>
          8 15 1 3 2.</_></rects>
      <tilted>0</tilted></_>
    <_>
      <rects>
        <_>
          7 12 24 4 -1.</_>
        <_>
          7 12 12 2 2.</_>
        <_>
          19 14 12 2 2.</_></rects>
      <tilted>0</tilted></_>
    <_>
      <rects>
        <_>
          7 15 18 6 -1.</_>
        <_>
          7 18 18 3 2.</_></rects>
      <tilted>0</tilted></_>
    <_>
      <rects>
        <_>
          7 17 10 2 -1.</_>
        <_>
          7 17 5 1 2.</_>
        <_>
          12 18 5 1 2.</_></rects>
      <tilted>0</tilted></_>
    <_>
      <rects>
        <_>
          7 21 3 3 -1.</_>
        <_>
          8 21 1 3 3.</_></rects>
      <tilted>0</tilted></_>
    <_>
      <rects>
        <_>
          7 22 3 2 -1.</_>
        <_>
          8 22 1 2 3.</_></rects>
      <tilted>0</tilted></_>
    <_>
      <rects>
        <_>
          7 22 24 2 -1.</_>
        <_>
          15 22 8 2 3.</_></rects>
      <tilted>0</tilted></_>
    <_>
      <rects>
        <_>
          7 23 3 1 -1.</_>
        <_>
          8 23 1 1 3.</_></rects>
      <tilted>0</tilted></_>
    <_>
      <rects>
        <_>
          8 0 15 4 -1.</_>
        <_>
          8 2 15 2 2.</_></rects>
      <tilted>0</tilted></_>
    <_>
      <rects>
        <_>
          8 2 4 6 -1.</_>
        <_>
          8 2 2 3 2.</_>
        <_>
          10 5 2 3 2.</_></rects>
      <tilted>0</tilted></_>
    <_>
      <rects>
        <_>
          8 2 10 6 -1.</_>
        <_>
          8 4 10 2 3.</_></rects>
      <tilted>0</tilted></_>
    <_>
      <rects>
        <_>
          8 5 12 15 -1.</_>
        <_>
          8 10 12 5 3.</_></rects>
      <tilted>0</tilted></_>
    <_>
      <rects>
        <_>
          8 7 3 2 -1.</_>
        <_>
          9 7 1 2 3.</_></rects>
      <tilted>0</tilted></_>
    <_>
      <rects>
        <_>
          8 7 6 4 -1.</_>
        <_>
          10 7 2 4 3.</_></rects>
      <tilted>0</tilted></_>
    <_>
      <rects>
        <_>
          8 8 7 14 -1.</_>
        <_>
          8 15 7 7 2.</_></rects>
      <tilted>0</tilted></_>
    <_>
      <rects>
        <_>
          8 12 16 10 -1.</_>
        <_>
          8 17 16 5 2.</_></rects>
      <tilted>0</tilted></_>
    <_>
      <rects>
        <_>
          8 13 1 2 -1.</_>
        <_>
          8 14 1 1 2.</_></rects>
      <tilted>0</tilted></_>
    <_>
      <rects>
        <_>
          8 16 13 4 -1.</_>
        <_>
          8 18 13 2 2.</_></rects>
      <tilted>0</tilted></_>
    <_>
      <rects>
        <_>
          8 20 17 3 -1.</_>
        <_>
          8 21 17 1 3.</_></rects>
      <tilted>0</tilted></_>
    <_>
      <rects>
        <_>
          9 0 12 24 -1.</_>
        <_>
          13 0 4 24 3.</_></rects>
      <tilted>0</tilted></_>
    <_>
      <rects>
        <_>
          9 2 2 20 -1.</_>
        <_>
          10 2 1 20 2.</_></rects>
      <tilted>0</tilted></_>
    <_>
      <rects>
        <_>
          9 2 6 12 -1.</_>
        <_>
          9 6 6 4 3.</_></rects>
      <tilted>0</tilted></_>
    <_>
      <rects>
        <_>
          9 3 11 6 -1.</_>
        <_>
          9 5 11 2 3.</_></rects>
      <tilted>0</tilted></_>
    <_>
      <rects>
        <_>
          9 4 12 20 -1.</_>
        <_>
          13 4 4 20 3.</_></rects>
      <tilted>0</tilted></_>
    <_>
      <rects>
        <_>
          9 6 7 12 -1.</_>
        <_>
          9 12 7 6 2.</_></rects>
      <tilted>0</tilted></_>
    <_>
      <rects>
        <_>
          9 7 6 7 -1.</_>
        <_>
          12 7 3 7 2.</_></rects>
      <tilted>0</tilted></_>
    <_>
      <rects>
        <_>
          9 7 4 6 -1.</_>
        <_>
          9 9 4 2 3.</_></rects>
      <tilted>0</tilted></_>
    <_>
      <rects>
        <_>
          9 13 10 4 -1.</_>
        <_>
          9 13 5 2 2.</_>
        <_>
          14 15 5 2 2.</_></rects>
      <tilted>0</tilted></_>
    <_>
      <rects>
        <_>
          9 18 18 1 -1.</_>
        <_>
          15 18 6 1 3.</_></rects>
      <tilted>0</tilted></_>
    <_>
      <rects>
        <_>
          9 21 8 2 -1.</_>
        <_>
          9 21 4 1 2.</_>
        <_>
          13 22 4 1 2.</_></rects>
      <tilted>0</tilted></_>
    <_>
      <rects>
        <_>
          10 0 5 18 -1.</_>
        <_>
          10 6 5 6 3.</_></rects>
      <tilted>0</tilted></_>
    <_>
      <rects>
        <_>
          10 1 13 6 -1.</_>
        <_>
          10 3 13 2 3.</_></rects>
      <tilted>0</tilted></_>
    <_>
      <rects>
        <_>
          10 3 12 20 -1.</_>
        <_>
          10 13 12 10 2.</_></rects>
      <tilted>0</tilted></_>
    <_>
      <rects>
        <_>
          10 3 19 4 -1.</_>
        <_>
          10 5 19 2 2.</_></rects>
      <tilted>0</tilted></_>
    <_>
      <rects>
        <_>
          10 6 6 18 -1.</_>
        <_>
          10 15 6 9 2.</_></rects>
      <tilted>0</tilted></_>
    <_>
      <rects>
        <_>
          10 6 17 4 -1.</_>
        <_>
          10 8 17 2 2.</_></rects>
      <tilted>0</tilted></_>
    <_>
      <rects>
        <_>
          10 8 4 8 -1.</_>
        <_>
          12 8 2 8 2.</_></rects>
      <tilted>0</tilted></_>
    <_>
      <rects>
        <_>
          10 8 18 6 -1.</_>
        <_>
          16 8 6 6 3.</_></rects>
      <tilted>0</tilted></_>
    <_>
      <rects>
        <_>
          10 9 2 3 -1.</_>
        <_>
          10 10 2 1 3.</_></rects>
      <tilted>0</tilted></_>
    <_>
      <rects>
        <_>
          10 10 18 4 -1.</_>
        <_>
          16 10 6 4 3.</_></rects>
      <tilted>0</tilted></_>
    <_>
      <rects>
        <_>
          10 20 6 2 -1.</_>
        <_>
          12 20 2 2 3.</_></rects>
      <tilted>0</tilted></_>
    <_>
      <rects>
        <_>
          11 1 4 3 -1.</_>
        <_>
          11 2 4 1 3.</_></rects>
      <tilted>0</tilted></_>
    <_>
      <rects>
        <_>
          11 2 20 8 -1.</_>
        <_>
          11 2 10 4 2.</_>
        <_>
          21 6 10 4 2.</_></rects>
      <tilted>0</tilted></_>
    <_>
      <rects>
        <_>
          11 2 13 12 -1.</_>
        <_>
          11 6 13 4 3.</_></rects>
      <tilted>0</tilted></_>
    <_>
      <rects>
        <_>
          11 8 10 2 -1.</_>
        <_>
          11 9 10 1 2.</_></rects>
      <tilted>0</tilted></_>
    <_>
      <rects>
        <_>
          12 1 10 6 -1.</_>
        <_>
          12 3 10 2 3.</_></rects>
      <tilted>0</tilted></_>
    <_>
      <rects>
        <_>
          12 1 10 14 -1.</_>
        <_>
          12 8 10 7 2.</_></rects>
      <tilted>0</tilted></_>
    <_>
      <rects>
        <_>
          12 1 13 6 -1.</_>
        <_>
          12 3 13 2 3.</_></rects>
      <tilted>0</tilted></_>
    <_>
      <rects>
        <_>
          12 7 18 7 -1.</_>
        <_>
          18 7 6 7 3.</_></rects>
      <tilted>0</tilted></_>
    <_>
      <rects>
        <_>
          12 7 9 6 -1.</_>
        <_>
          12 9 9 2 3.</_></rects>
      <tilted>0</tilted></_>
    <_>
      <rects>
        <_>
          12 8 6 2 -1.</_>
        <_>
          12 9 6 1 2.</_></rects>
      <tilted>0</tilted></_>
    <_>
      <rects>
        <_>
          12 10 4 14 -1.</_>
        <_>
          12 17 4 7 2.</_></rects>
      <tilted>0</tilted></_>
    <_>
      <rects>
        <_>
          13 2 2 3 -1.</_>
        <_>
          13 3 2 1 3.</_></rects>
      <tilted>0</tilted></_>
    <_>
      <rects>
        <_>
          13 5 16 6 -1.</_>
        <_>
          13 7 16 2 3.</_></rects>
      <tilted>0</tilted></_>
    <_>
      <rects>
        <_>
          13 8 12 4 -1.</_>
        <_>
          17 8 4 4 3.</_></rects>
      <tilted>0</tilted></_>
    <_>
      <rects>
        <_>
          13 15 3 3 -1.</_>
        <_>
          13 16 3 1 3.</_></rects>
      <tilted>0</tilted></_>
    <_>
      <rects>
        <_>
          13 19 6 4 -1.</_>
        <_>
          15 19 2 4 3.</_></rects>
      <tilted>0</tilted></_>
    <_>
      <rects>
        <_>
          14 1 3 16 -1.</_>
        <_>
          15 1 1 16 3.</_></rects>
      <tilted>0</tilted></_>
    <_>
      <rects>
        <_>
          14 4 3 2 -1.</_>
        <_>
          15 4 1 2 3.</_></rects>
      <tilted>0</tilted></_>
    <_>
      <rects>
        <_>
          14 6 4 6 -1.</_>
        <_>
          14 6 2 3 2.</_>
        <_>
          16 9 2 3 2.</_></rects>
      <tilted>0</tilted></_>
    <_>
      <rects>
        <_>
          14 6 14 18 -1.</_>
        <_>
          14 15 14 9 2.</_></rects>
      <tilted>0</tilted></_>
    <_>
      <rects>
        <_>
          14 9 1 3 -1.</_>
        <_>
          14 10 1 1 3.</_></rects>
      <tilted>0</tilted></_>
    <_>
      <rects>
        <_>
          14 13 1 3 -1.</_>
        <_>
          14 14 1 1 3.</_></rects>
      <tilted>0</tilted></_>
    <_>
      <rects>
        <_>
          15 2 2 3 -1.</_>
        <_>
          15 3 2 1 3.</_></rects>
      <tilted>0</tilted></_>
    <_>
      <rects>
        <_>
          15 3 3 3 -1.</_>
        <_>
          15 4 3 1 3.</_></rects>
      <tilted>0</tilted></_>
    <_>
      <rects>
        <_>
          15 5 17 3 -1.</_>
        <_>
          15 6 17 1 3.</_></rects>
      <tilted>0</tilted></_>
    <_>
      <rects>
        <_>
          15 17 11 6 -1.</_>
        <_>
          15 19 11 2 3.</_></rects>
      <tilted>0</tilted></_>
    <_>
      <rects>
        <_>
          15 21 2 3 -1.</_>
        <_>
          15 22 2 1 3.</_></rects>
      <tilted>0</tilted></_>
    <_>
      <rects>
        <_>
          16 2 6 8 -1.</_>
        <_>
          16 6 6 4 2.</_></rects>
      <tilted>0</tilted></_>
    <_>
      <rects>
        <_>
          16 2 16 3 -1.</_>
        <_>
          16 3 16 1 3.</_></rects>
      <tilted>0</tilted></_>
    <_>
      <rects>
        <_>
          16 4 2 2 -1.</_>
        <_>
          17 4 1 2 2.</_></rects>
      <tilted>0</tilted></_>
    <_>
      <rects>
        <_>
          16 7 4 12 -1.</_>
        <_>
          16 7 2 6 2.</_>
        <_>
          18 13 2 6 2.</_></rects>
      <tilted>0</tilted></_>
    <_>
      <rects>
        <_>
          16 8 9 4 -1.</_>
        <_>
          19 8 3 4 3.</_></rects>
      <tilted>0</tilted></_>
    <_>
      <rects>
        <_>
          16 9 6 2 -1.</_>
        <_>
          18 9 2 2 3.</_></rects>
      <tilted>0</tilted></_>
    <_>
      <rects>
        <_>
          16 9 12 2 -1.</_>
        <_>
          20 9 4 2 3.</_></rects>
      <tilted>0</tilted></_>
    <_>
      <rects>
        <_>
          16 13 3 3 -1.</_>
        <_>
          16 14 3 1 3.</_></rects>
      <tilted>0</tilted></_>
    <_>
      <rects>
        <_>
          16 16 2 3 -1.</_>
        <_>
          16 17 2 1 3.</_></rects>
      <tilted>0</tilted></_>
    <_>
      <rects>
        <_>
          16 18 8 2 -1.</_>
        <_>
          16 18 4 1 2.</_>
        <_>
          20 19 4 1 2.</_></rects>
      <tilted>0</tilted></_>
    <_>
      <rects>
        <_>
          17 3 4 18 -1.</_>
        <_>
          17 3 2 9 2.</_>
        <_>
          19 12 2 9 2.</_></rects>
      <tilted>0</tilted></_>
    <_>
      <rects>
        <_>
          17 4 10 4 -1.</_>
        <_>
          17 4 5 2 2.</_>
        <_>
          22 6 5 2 2.</_></rects>
      <tilted>0</tilted></_>
    <_>
      <rects>
        <_>
          17 6 4 5 -1.</_>
        <_>
          19 6 2 5 2.</_></rects>
      <tilted>0</tilted></_>
    <_>
      <rects>
        <_>
          17 7 9 4 -1.</_>
        <_>
          20 7 3 4 3.</_></rects>
      <tilted>0</tilted></_>
    <_>
      <rects>
        <_>
          17 10 9 1 -1.</_>
        <_>
          20 10 3 1 3.</_></rects>
      <tilted>0</tilted></_>
    <_>
      <rects>
        <_>
          17 11 12 3 -1.</_>
        <_>
          17 12 12 1 3.</_></rects>
      <tilted>0</tilted></_>
    <_>
      <rects>
        <_>
          18 1 2 4 -1.</_>
        <_>
          18 3 2 2 2.</_></rects>
      <tilted>0</tilted></_>
    <_>
      <rects>
        <_>
          18 1 3 2 -1.</_>
        <_>
          18 2 3 1 2.</_></rects>
      <tilted>0</tilted></_>
    <_>
      <rects>
        <_>
          18 1 5 4 -1.</_>
        <_>
          18 3 5 2 2.</_></rects>
      <tilted>0</tilted></_>
    <_>
      <rects>
        <_>
          18 2 2 3 -1.</_>
        <_>
          18 3 2 1 3.</_></rects>
      <tilted>0</tilted></_>
    <_>
      <rects>
        <_>
          18 5 1 9 -1.</_>
        <_>
          18 8 1 3 3.</_></rects>
      <tilted>0</tilted></_>
    <_>
      <rects>
        <_>
          18 6 4 18 -1.</_>
        <_>
          18 15 4 9 2.</_></rects>
      <tilted>0</tilted></_>
    <_>
      <rects>
        <_>
          18 8 12 2 -1.</_>
        <_>
          18 8 6 1 2.</_>
        <_>
          24 9 6 1 2.</_></rects>
      <tilted>0</tilted></_>
    <_>
      <rects>
        <_>
          18 8 12 6 -1.</_>
        <_>
          18 8 6 3 2.</_>
        <_>
          24 11 6 3 2.</_></rects>
      <tilted>0</tilted></_>
    <_>
      <rects>
        <_>
          18 12 14 12 -1.</_>
        <_>
          18 12 7 6 2.</_>
        <_>
          25 18 7 6 2.</_></rects>
      <tilted>0</tilted></_>
    <_>
      <rects>
        <_>
          18 14 3 3 -1.</_>
        <_>
          18 15 3 1 3.</_></rects>
      <tilted>0</tilted></_>
    <_>
      <rects>
        <_>
          18 14 14 10 -1.</_>
        <_>
          18 14 7 5 2.</_>
        <_>
          25 19 7 5 2.</_></rects>
      <tilted>0</tilted></_>
    <_>
      <rects>
        <_>
          18 15 1 3 -1.</_>
        <_>
          18 16 1 1 3.</_></rects>
      <tilted>0</tilted></_>
    <_>
      <rects>
        <_>
          18 17 6 3 -1.</_>
        <_>
          18 18 6 1 3.</_></rects>
      <tilted>0</tilted></_>
    <_>
      <rects>
        <_>
          19 6 9 6 -1.</_>
        <_>
          22 6 3 6 3.</_></rects>
      <tilted>0</tilted></_>
    <_>
      <rects>
        <_>
          19 6 12 12 -1.</_>
        <_>
          23 6 4 12 3.</_></rects>
      <tilted>0</tilted></_>
    <_>
      <rects>
        <_>
          19 9 9 2 -1.</_>
        <_>
          22 9 3 2 3.</_></rects>
      <tilted>0</tilted></_>
    <_>
      <rects>
        <_>
          19 18 7 3 -1.</_>
        <_>
          19 19 7 1 3.</_></rects>
      <tilted>0</tilted></_>
    <_>
      <rects>
        <_>
          19 20 8 2 -1.</_>
        <_>
          19 20 4 1 2.</_>
        <_>
          23 21 4 1 2.</_></rects>
      <tilted>0</tilted></_>
    <_>
      <rects>
        <_>
          19 23 4 1 -1.</_>
        <_>
          21 23 2 1 2.</_></rects>
      <tilted>0</tilted></_>
    <_>
      <rects>
        <_>
          20 1 1 15 -1.</_>
        <_>
          20 6 1 5 3.</_></rects>
      <tilted>0</tilted></_>
    <_>
      <rects>
        <_>
          20 3 8 2 -1.</_>
        <_>
          20 3 4 1 2.</_>
        <_>
          24 4 4 1 2.</_></rects>
      <tilted>0</tilted></_>
    <_>
      <rects>
        <_>
          20 11 1 3 -1.</_>
        <_>
          20 12 1 1 3.</_></rects>
      <tilted>0</tilted></_>
    <_>
      <rects>
        <_>
          20 12 11 2 -1.</_>
        <_>
          20 13 11 1 2.</_></rects>
      <tilted>0</tilted></_>
    <_>
      <rects>
        <_>
          20 13 3 2 -1.</_>
        <_>
          20 14 3 1 2.</_></rects>
      <tilted>0</tilted></_>
    <_>
      <rects>
        <_>
          20 14 2 3 -1.</_>
        <_>
          20 15 2 1 3.</_></rects>
      <tilted>0</tilted></_>
    <_>
      <rects>
        <_>
          21 6 4 18 -1.</_>
        <_>
          21 12 4 6 3.</_></rects>
      <tilted>0</tilted></_>
    <_>
      <rects>
        <_>
          21 12 5 3 -1.</_>
        <_>
          21 13 5 1 3.</_></rects>
      <tilted>0</tilted></_>
    <_>
      <rects>
        <_>
          21 13 1 3 -1.</_>
        <_>
          21 14 1 1 3.</_></rects>
      <tilted>0</tilted></_>
    <_>
      <rects>
        <_>
          21 16 1 3 -1.</_>
        <_>
          21 17 1 1 3.</_></rects>
      <tilted>0</tilted></_>
    <_>
      <rects>
        <_>
          21 23 6 1 -1.</_>
        <_>
          24 23 3 1 2.</_></rects>
      <tilted>0</tilted></_>
    <_>
      <rects>
        <_>
          22 8 6 1 -1.</_>
        <_>
          24 8 2 1 3.</_></rects>
      <tilted>0</tilted></_>
    <_>
      <rects>
        <_>
          22 12 3 7 -1.</_>
        <_>
          23 12 1 7 3.</_></rects>
      <tilted>0</tilted></_>
    <_>
      <rects>
        <_>
          22 13 3 3 -1.</_>
        <_>
          23 13 1 3 3.</_></rects>
      <tilted>0</tilted></_>
    <_>
      <rects>
        <_>
          22 16 4 3 -1.</_>
        <_>
          22 17 4 1 3.</_></rects>
      <tilted>0</tilted></_>
    <_>
      <rects>
        <_>
          22 19 10 3 -1.</_>
        <_>
          27 19 5 3 2.</_></rects>
      <tilted>0</tilted></_>
    <_>
      <rects>
        <_>
          23 2 5 20 -1.</_>
        <_>
          23 12 5 10 2.</_></rects>
      <tilted>0</tilted></_>
    <_>
      <rects>
        <_>
          23 5 3 7 -1.</_>
        <_>
          24 5 1 7 3.</_></rects>
      <tilted>0</tilted></_>
    <_>
      <rects>
        <_>
          23 6 9 5 -1.</_>
        <_>
          26 6 3 5 3.</_></rects>
      <tilted>0</tilted></_>
    <_>
      <rects>
        <_>
          23 8 6 1 -1.</_>
        <_>
          25 8 2 1 3.</_></rects>
      <tilted>0</tilted></_>
    <_>
      <rects>
        <_>
          23 15 6 6 -1.</_>
        <_>
          26 15 3 6 2.</_></rects>
      <tilted>0</tilted></_>
    <_>
      <rects>
        <_>
          24 1 8 17 -1.</_>
        <_>
          28 1 4 17 2.</_></rects>
      <tilted>0</tilted></_>
    <_>
      <rects>
        <_>
          24 19 4 2 -1.</_>
        <_>
          24 20 4 1 2.</_></rects>
      <tilted>0</tilted></_>
    <_>
      <rects>
        <_>
          25 14 4 3 -1.</_>
        <_>
          25 15 4 1 3.</_></rects>
      <tilted>0</tilted></_>
    <_>
      <rects>
        <_>
          26 5 1 14 -1.</_>
        <_>
          26 12 1 7 2.</_></rects>
      <tilted>0</tilted></_>
    <_>
      <rects>
        <_>
          26 14 6 5 -1.</_>
        <_>
          28 14 2 5 3.</_></rects>
      <tilted>0</tilted></_>
    <_>
      <rects>
        <_>
          26 19 6 3 -1.</_>
        <_>
          29 19 3 3 2.</_></rects>
      <tilted>0</tilted></_>
    <_>
      <rects>
        <_>
          26 21 2 2 -1.</_>
        <_>
          27 21 1 2 2.</_></rects>
      <tilted>0</tilted></_>
    <_>
      <rects>
        <_>
          26 21 6 2 -1.</_>
        <_>
          26 21 3 1 2.</_>
        <_>
          29 22 3 1 2.</_></rects>
      <tilted>0</tilted></_>
    <_>
      <rects>
        <_>
          26 22 6 2 -1.</_>
        <_>
          26 23 6 1 2.</_></rects>
      <tilted>0</tilted></_>
    <_>
      <rects>
        <_>
          27 8 3 1 -1.</_>
        <_>
          28 8 1 1 3.</_></rects>
      <tilted>0</tilted></_>
    <_>
      <rects>
        <_>
          27 11 2 3 -1.</_>
        <_>
          27 12 2 1 3.</_></rects>
      <tilted>0</tilted></_>
    <_>
      <rects>
        <_>
          27 21 2 2 -1.</_>
        <_>
          27 22 2 1 2.</_></rects>
      <tilted>0</tilted></_>
    <_>
      <rects>
        <_>
          27 22 2 2 -1.</_>
        <_>
          28 22 1 2 2.</_></rects>
      <tilted>0</tilted></_>
    <_>
      <rects>
        <_>
          28 6 2 16 -1.</_>
        <_>
          28 14 2 8 2.</_></rects>
      <tilted>0</tilted></_>
    <_>
      <rects>
        <_>
          28 17 4 7 -1.</_>
        <_>
          30 17 2 7 2.</_></rects>
      <tilted>0</tilted></_>
    <_>
      <rects>
        <_>
          29 2 3 3 -1.</_>
        <_>
          30 2 1 3 3.</_></rects>
      <tilted>0</tilted></_>
    <_>
      <rects>
        <_>
          29 11 1 3 -1.</_>
        <_>
          29 12 1 1 3.</_></rects>
      <tilted>0</tilted></_>
    <_>
      <rects>
        <_>
          29 16 1 8 -1.</_>
        <_>
          29 20 1 4 2.</_></rects>
      <tilted>0</tilted></_>
    <_>
      <rects>
        <_>
          29 17 1 6 -1.</_>
        <_>
          29 20 1 3 2.</_></rects>
      <tilted>0</tilted></_>
    <_>
      <rects>
        <_>
          30 5 2 16 -1.</_>
        <_>
          30 5 1 8 2.</_>
        <_>
          31 13 1 8 2.</_></rects>
      <tilted>0</tilted></_>
    <_>
      <rects>
        <_>
          30 6 2 10 -1.</_>
        <_>
          31 6 1 10 2.</_></rects>
      <tilted>0</tilted></_>
    <_>
      <rects>
        <_>
          30 15 1 2 -1.</_>
        <_>
          30 16 1 1 2.</_></rects>
      <tilted>0</tilted></_>
    <_>
      <rects>
        <_>
          30 21 2 2 -1.</_>
        <_>
          30 22 2 1 2.</_></rects>
      <tilted>0</tilted></_></features></cascade>
</opencv_storage>
