<?xml version="1.0"?>
<opencv_storage>
<cascade>
  <stageType>BOOST</stageType>
  <featureType>HAAR</featureType>
  <height>24</height>
  <width>32</width>
  <stageParams>
    <boostType>GAB</boostType>
    <minHitRate>9.9500000476837158e-01</minHitRate>
    <maxFalseAlarm>5.0000000000000000e-01</maxFalseAlarm>
    <weightTrimRate>9.4999998807907104e-01</weightTrimRate>
    <maxDepth>1</maxDepth>
    <maxWeakCount>100</maxWeakCount></stageParams>
  <featureParams>
    <maxCatCount>0</maxCatCount>
    <featSize>1</featSize>
    <mode>BASIC</mode></featureParams>
  <stageNum>20</stageNum>
  <stages>
    <!-- stage 0 -->
    <_>
      <maxWeakCount>6</maxWeakCount>
      <stageThreshold>-1.6916769742965698e+00</stageThreshold>
      <weakClassifiers>
        <_>
          <internalNodes>
            0 -1 115 -7.8264966607093811e-02</internalNodes>
          <leafValues>
            2.4550898373126984e-01 -8.4602367877960205e-01</leafValues></_>
        <_>
          <internalNodes>
            0 -1 207 5.7128793559968472e-03</internalNodes>
          <leafValues>
            -6.5815359354019165e-01 5.3946244716644287e-01</leafValues></_>
        <_>
          <internalNodes>
            0 -1 16 -4.4709276407957077e-03</internalNodes>
          <leafValues>
            4.6160200238227844e-01 -6.2486785650253296e-01</leafValues></_>
        <_>
          <internalNodes>
            0 -1 164 -1.9385429099202156e-02</internalNodes>
          <leafValues>
            4.0280619263648987e-01 -6.1524677276611328e-01</leafValues></_>
        <_>
          <internalNodes>
            0 -1 28 -4.3915607035160065e-02</internalNodes>
          <leafValues>
            7.8580248355865479e-01 -3.4307852387428284e-01</leafValues></_>
        <_>
          <internalNodes>
            0 -1 45 -2.4803774431347847e-03</internalNodes>
          <leafValues>
            3.7764048576354980e-01 -6.2914586067199707e-01</leafValues></_></weakClassifiers></_>
    <!-- stage 1 -->
    <_>
      <maxWeakCount>6</maxWeakCount>
      <stageThreshold>-1.6423497200012207e+00</stageThreshold>
      <weakClassifiers>
        <_>
          <internalNodes>
            0 -1 92 -9.6729338169097900e-02</internalNodes>
          <leafValues>
            2.0000000298023224e-01 -8.0803936719894409e-01</leafValues></_>
        <_>
          <internalNodes>
            0 -1 200 2.4202156346291304e-03</internalNodes>
          <leafValues>
            -6.3447654247283936e-01 3.1782406568527222e-01</leafValues></_>
        <_>
          <internalNodes>
            0 -1 12 -1.5610576607286930e-02</internalNodes>
          <leafValues>
            3.9644047617912292e-01 -5.1923066377639771e-01</leafValues></_>
        <_>
          <internalNodes>
            0 -1 211 6.3731018453836441e-03</internalNodes>
          <leafValues>
            -4.2777332663536072e-01 4.8617711663246155e-01</leafValues></_>
        <_>
          <internalNodes>
            0 -1 14 -2.7268692851066589e-02</internalNodes>
          <leafValues>
            6.8459498882293701e-01 -2.9208591580390930e-01</leafValues></_>
        <_>
          <internalNodes>
            0 -1 82 1.3345423154532909e-02</internalNodes>
          <leafValues>
            2.7428150177001953e-01 -8.8972538709640503e-01</leafValues></_></weakClassifiers></_>
    <!-- stage 2 -->
    <_>
      <maxWeakCount>7</maxWeakCount>
      <stageThreshold>-1.9896941184997559e+00</stageThreshold>
      <weakClassifiers>
        <_>
          <internalNodes>
            0 -1 55 -4.0267989039421082e-02</internalNodes>
          <leafValues>
            3.6842104792594910e-01 -7.9266345500946045e-01</leafValues></_>
        <_>
          <internalNodes>
            0 -1 84 9.8206903785467148e-03</internalNodes>
          <leafValues>
            -4.9939164519309998e-01 5.0854450464248657e-01</leafValues></_>
        <_>
          <internalNodes>
            0 -1 193 -2.4763664230704308e-02</internalNodes>
          <leafValues>
            6.0586649179458618e-01 -3.3425599336624146e-01</leafValues></_>
        <_>
          <internalNodes>
            0 -1 113 -1.7227154225111008e-02</internalNodes>
          <leafValues>
            5.4314857721328735e-01 -3.6769178509712219e-01</leafValues></_>
        <_>
          <internalNodes>
            0 -1 188 7.3828035965561867e-03</internalNodes>
          <leafValues>
            -4.1093710064888000e-01 4.1277861595153809e-01</leafValues></_>
        <_>
          <internalNodes>
            0 -1 56 1.2982217594981194e-02</internalNodes>
          <leafValues>
            -2.4918764829635620e-01 6.3743346929550171e-01</leafValues></_>
        <_>
          <internalNodes>
            0 -1 61 -1.3193580321967602e-02</internalNodes>
          <leafValues>
            5.9922349452972412e-01 -2.2218762338161469e-01</leafValues></_></weakClassifiers></_>
    <!-- stage 3 -->
    <_>
      <maxWeakCount>8</maxWeakCount>
      <stageThreshold>-2.1089465618133545e+00</stageThreshold>
      <weakClassifiers>
        <_>
          <internalNodes>
            0 -1 107 3.4245684742927551e-02</internalNodes>
          <leafValues>
            -7.6498055458068848e-01 3.7500000000000000e-01</leafValues></_>
        <_>
          <internalNodes>
            0 -1 140 -3.6149282008409500e-02</internalNodes>
          <leafValues>
            1.6600838303565979e-01 -6.3707619905471802e-01</leafValues></_>
        <_>
          <internalNodes>
            0 -1 36 -8.1484466791152954e-02</internalNodes>
          <leafValues>
            6.7181605100631714e-01 -2.9874733090400696e-01</leafValues></_>
        <_>
          <internalNodes>
            0 -1 187 7.0154131390154362e-03</internalNodes>
          <leafValues>
            -4.4825604557991028e-01 3.7147039175033569e-01</leafValues></_>
        <_>
          <internalNodes>
            0 -1 27 -5.1451550098136067e-04</internalNodes>
          <leafValues>
            2.3252254724502563e-01 -6.7213672399520874e-01</leafValues></_>
        <_>
          <internalNodes>
            0 -1 208 -5.7011684402823448e-03</internalNodes>
          <leafValues>
            2.4584327638149261e-01 -6.4574807882308960e-01</leafValues></_>
        <_>
          <internalNodes>
            0 -1 52 -2.3326318711042404e-02</internalNodes>
          <leafValues>
            6.8232601881027222e-01 -2.7470400929450989e-01</leafValues></_>
        <_>
          <internalNodes>
            0 -1 25 -1.4429147355258465e-02</internalNodes>
          <leafValues>
            6.2100499868392944e-01 -2.2945250570774078e-01</leafValues></_></weakClassifiers></_>
    <!-- stage 4 -->
    <_>
      <maxWeakCount>8</maxWeakCount>
      <stageThreshold>-1.4766129255294800e+00</stageThreshold>
      <weakClassifiers>
        <_>
          <internalNodes>
            0 -1 32 -2.2748431190848351e-02</internalNodes>
          <leafValues>
            -3.8961037993431091e-02 -7.9748952388763428e-01</leafValues></_>
        <_>
          <internalNodes>
            0 -1 170 -1.4783050864934921e-02</internalNodes>
          <leafValues>
            4.3309968709945679e-01 -4.1302728652954102e-01</leafValues></_>
        <_>
          <internalNodes>
            0 -1 224 -5.0988566363230348e-04</internalNodes>
          <leafValues>
            -8.6455327272415161e-01 1.5986043214797974e-01</leafValues></_>
        <_>
          <internalNodes>
            0 -1 91 1.1830405856017023e-04</internalNodes>
          <leafValues>
            1.8052780628204346e-01 -7.7919340133666992e-01</leafValues></_>
        <_>
          <internalNodes>
            0 -1 117 -1.9053198397159576e-02</internalNodes>
          <leafValues>
            5.1361060142517090e-01 -2.9816246032714844e-01</leafValues></_>
        <_>
          <internalNodes>
            0 -1 209 2.0704199559986591e-03</internalNodes>
          <leafValues>
            -3.1124827265739441e-01 4.1424211859703064e-01</leafValues></_>
        <_>
          <internalNodes>
            0 -1 114 -6.8769305944442749e-02</internalNodes>
          <leafValues>
            4.3675872683525085e-01 -2.9214224219322205e-01</leafValues></_>
        <_>
          <internalNodes>
            0 -1 71 8.6781783029437065e-03</internalNodes>
          <leafValues>
            -2.2922906279563904e-01 6.9530504941940308e-01</leafValues></_></weakClassifiers></_>
    <!-- stage 5 -->
    <_>
      <maxWeakCount>5</maxWeakCount>
      <stageThreshold>-1.7718470096588135e+00</stageThreshold>
      <weakClassifiers>
        <_>
          <internalNodes>
            0 -1 101 -8.7004825472831726e-03</internalNodes>
          <leafValues>
            4.1071429848670959e-01 -8.1244945526123047e-01</leafValues></_>
        <_>
          <internalNodes>
            0 -1 136 -9.5266073942184448e-02</internalNodes>
          <leafValues>
            -7.8191125392913818e-01 2.3640933632850647e-01</leafValues></_>
        <_>
          <internalNodes>
            0 -1 173 1.4312233543023467e-04</internalNodes>
          <leafValues>
            -4.6271100640296936e-01 5.9003311395645142e-01</leafValues></_>
        <_>
          <internalNodes>
            0 -1 134 -4.7819921746850014e-03</internalNodes>
          <leafValues>
            7.5683969259262085e-01 -2.9508092999458313e-01</leafValues></_>
        <_>
          <internalNodes>
            0 -1 186 -1.9215667620301247e-02</internalNodes>
          <leafValues>
            5.8030563592910767e-01 -4.2611530423164368e-01</leafValues></_></weakClassifiers></_>
    <!-- stage 6 -->
    <_>
      <maxWeakCount>9</maxWeakCount>
      <stageThreshold>-1.7081488370895386e+00</stageThreshold>
      <weakClassifiers>
        <_>
          <internalNodes>
            0 -1 26 -4.5369020663201809e-03</internalNodes>
          <leafValues>
            -3.2098764181137085e-01 -8.3414632081985474e-01</leafValues></_>
        <_>
          <internalNodes>
            0 -1 48 -1.8874084576964378e-02</internalNodes>
          <leafValues>
            2.9342508316040039e-01 -4.7834253311157227e-01</leafValues></_>
        <_>
          <internalNodes>
            0 -1 133 -1.4298249734565616e-03</internalNodes>
          <leafValues>
            4.2784413695335388e-01 -3.0362221598625183e-01</leafValues></_>
        <_>
          <internalNodes>
            0 -1 216 1.4914085622876883e-03</internalNodes>
          <leafValues>
            -3.1328278779983521e-01 4.4457611441612244e-01</leafValues></_>
        <_>
          <internalNodes>
            0 -1 73 4.1188724339008331e-02</internalNodes>
          <leafValues>
            -1.6389721632003784e-01 7.4287164211273193e-01</leafValues></_>
        <_>
          <internalNodes>
            0 -1 123 6.4762588590383530e-03</internalNodes>
          <leafValues>
            -1.6712400317192078e-01 6.2189853191375732e-01</leafValues></_>
        <_>
          <internalNodes>
            0 -1 127 -2.6370030827820301e-03</internalNodes>
          <leafValues>
            5.8005040884017944e-01 -2.0618025958538055e-01</leafValues></_>
        <_>
          <internalNodes>
            0 -1 153 1.0795885464176536e-03</internalNodes>
          <leafValues>
            -2.2545233368873596e-01 5.1045817136764526e-01</leafValues></_>
        <_>
          <internalNodes>
            0 -1 121 -1.7114188522100449e-02</internalNodes>
          <leafValues>
            3.8173076510429382e-01 -2.8711873292922974e-01</leafValues></_></weakClassifiers></_>
    <!-- stage 7 -->
    <_>
      <maxWeakCount>9</maxWeakCount>
      <stageThreshold>-1.3974709510803223e+00</stageThreshold>
      <weakClassifiers>
        <_>
          <internalNodes>
            0 -1 100 -7.3536708950996399e-03</internalNodes>
          <leafValues>
            -3.1250000000000000e-01 -8.0420857667922974e-01</leafValues></_>
        <_>
          <internalNodes>
            0 -1 180 -5.6192670017480850e-03</internalNodes>
          <leafValues>
            3.5276541113853455e-01 -3.9768204092979431e-01</leafValues></_>
        <_>
          <internalNodes>
            0 -1 201 -1.5539521700702608e-04</internalNodes>
          <leafValues>
            -7.9165935516357422e-01 1.2649698555469513e-01</leafValues></_>
        <_>
          <internalNodes>
            0 -1 210 -5.0735007971525192e-03</internalNodes>
          <leafValues>
            3.8229662179946899e-01 -2.9038104414939880e-01</leafValues></_>
        <_>
          <internalNodes>
            0 -1 57 4.0645420551300049e-02</internalNodes>
          <leafValues>
            1.5136834979057312e-01 -8.2420206069946289e-01</leafValues></_>
        <_>
          <internalNodes>
            0 -1 199 -3.0348482541739941e-03</internalNodes>
          <leafValues>
            4.8205658793449402e-01 -2.5328186154365540e-01</leafValues></_>
        <_>
          <internalNodes>
            0 -1 125 -1.4235817361623049e-03</internalNodes>
          <leafValues>
            4.7109848260879517e-01 -2.1784768998622894e-01</leafValues></_>
        <_>
          <internalNodes>
            0 -1 130 -9.4187952345237136e-04</internalNodes>
          <leafValues>
            5.1888269186019897e-01 -2.1220751106739044e-01</leafValues></_>
        <_>
          <internalNodes>
            0 -1 161 2.3616072721779346e-03</internalNodes>
          <leafValues>
            -1.7240522801876068e-01 6.0519289970397949e-01</leafValues></_></weakClassifiers></_>
    <!-- stage 8 -->
    <_>
      <maxWeakCount>8</maxWeakCount>
      <stageThreshold>-1.6187794208526611e+00</stageThreshold>
      <weakClassifiers>
        <_>
          <internalNodes>
            0 -1 13 -1.9727518782019615e-02</internalNodes>
          <leafValues>
            -3.0196079611778259e-01 -8.0621570348739624e-01</leafValues></_>
        <_>
          <internalNodes>
            0 -1 22 -9.3614347279071808e-03</internalNodes>
          <leafValues>
            3.0850481986999512e-01 -4.4371855258941650e-01</leafValues></_>
        <_>
          <internalNodes>
            0 -1 9 3.4001837484538555e-03</internalNodes>
          <leafValues>
            -3.1776532530784607e-01 3.8417533040046692e-01</leafValues></_>
        <_>
          <internalNodes>
            0 -1 191 -6.0086022131145000e-03</internalNodes>
          <leafValues>
            1.7972406744956970e-01 -6.3438075780868530e-01</leafValues></_>
        <_>
          <internalNodes>
            0 -1 39 5.0114165060222149e-04</internalNodes>
          <leafValues>
            -1.9392347335815430e-01 5.5586260557174683e-01</leafValues></_>
        <_>
          <internalNodes>
            0 -1 20 -2.2013235138729215e-04</internalNodes>
          <leafValues>
            -7.7270323038101196e-01 1.6008625924587250e-01</leafValues></_>
        <_>
          <internalNodes>
            0 -1 177 7.8153349459171295e-03</internalNodes>
          <leafValues>
            -2.0554815232753754e-01 5.6629031896591187e-01</leafValues></_>
        <_>
          <internalNodes>
            0 -1 178 -2.2405199706554413e-03</internalNodes>
          <leafValues>
            5.2721422910690308e-01 -2.6482456922531128e-01</leafValues></_></weakClassifiers></_>
    <!-- stage 9 -->
    <_>
      <maxWeakCount>10</maxWeakCount>
      <stageThreshold>-1.5338603258132935e+00</stageThreshold>
      <weakClassifiers>
        <_>
          <internalNodes>
            0 -1 81 -1.0474356822669506e-02</internalNodes>
          <leafValues>
            -3.0256411433219910e-01 -7.7989602088928223e-01</leafValues></_>
        <_>
          <internalNodes>
            0 -1 21 -6.7889057099819183e-03</internalNodes>
          <leafValues>
            8.2050807774066925e-02 -4.8877066373825073e-01</leafValues></_>
        <_>
          <internalNodes>
            0 -1 166 -1.1782502755522728e-02</internalNodes>
          <leafValues>
            -9.2708915472030640e-01 8.1641308963298798e-02</leafValues></_>
        <_>
          <internalNodes>
            0 -1 19 -4.9130030674859881e-04</internalNodes>
          <leafValues>
            -7.9239034652709961e-01 1.2272955477237701e-01</leafValues></_>
        <_>
          <internalNodes>
            0 -1 214 1.5579949831590056e-03</internalNodes>
          <leafValues>
            -3.7487402558326721e-01 2.3347628116607666e-01</leafValues></_>
        <_>
          <internalNodes>
            0 -1 11 1.7817174084484577e-03</internalNodes>
          <leafValues>
            -1.6113975644111633e-01 5.2149534225463867e-01</leafValues></_>
        <_>
          <internalNodes>
            0 -1 62 -7.8560765832662582e-03</internalNodes>
          <leafValues>
            5.4061555862426758e-01 -1.5698708593845367e-01</leafValues></_>
        <_>
          <internalNodes>
            0 -1 53 5.4201155900955200e-02</internalNodes>
          <leafValues>
            -1.2586751580238342e-01 7.6955091953277588e-01</leafValues></_>
        <_>
          <internalNodes>
            0 -1 202 2.0426197443157434e-04</internalNodes>
          <leafValues>
            1.7887520790100098e-01 -5.9122401475906372e-01</leafValues></_>
        <_>
          <internalNodes>
            0 -1 169 -1.7942932900041342e-03</internalNodes>
          <leafValues>
            2.4289655685424805e-01 -4.0039286017417908e-01</leafValues></_></weakClassifiers></_>
    <!-- stage 10 -->
    <_>
      <maxWeakCount>11</maxWeakCount>
      <stageThreshold>-1.5282647609710693e+00</stageThreshold>
      <weakClassifiers>
        <_>
          <internalNodes>
            0 -1 143 -3.1991447322070599e-03</internalNodes>
          <leafValues>
            -2.2077922523021698e-01 -7.7405858039855957e-01</leafValues></_>
        <_>
          <internalNodes>
            0 -1 74 -1.9685475155711174e-02</internalNodes>
          <leafValues>
            1.8796445429325104e-01 -4.3849024176597595e-01</leafValues></_>
        <_>
          <internalNodes>
            0 -1 89 8.0710537731647491e-03</internalNodes>
          <leafValues>
            -2.0088332891464233e-01 4.9113580584526062e-01</leafValues></_>
        <_>
          <internalNodes>
            0 -1 138 1.5853673219680786e-02</internalNodes>
          <leafValues>
            -2.1490159630775452e-01 4.7794139385223389e-01</leafValues></_>
        <_>
          <internalNodes>
            0 -1 15 -8.3629554137587547e-04</internalNodes>
          <leafValues>
            2.6148235797882080e-01 -3.8993778824806213e-01</leafValues></_>
        <_>
          <internalNodes>
            0 -1 34 3.0767943826504052e-04</internalNodes>
          <leafValues>
            -2.3009777069091797e-01 4.0344265103340149e-01</leafValues></_>
        <_>
          <internalNodes>
            0 -1 43 2.3875641636550426e-04</internalNodes>
          <leafValues>
            1.5624909102916718e-01 -8.1346195936203003e-01</leafValues></_>
        <_>
          <internalNodes>
            0 -1 151 -1.5167130623012781e-03</internalNodes>
          <leafValues>
            3.5103288292884827e-01 -2.9183188080787659e-01</leafValues></_>
        <_>
          <internalNodes>
            0 -1 149 -3.8221473805606365e-03</internalNodes>
          <leafValues>
            5.0730574131011963e-01 -2.1310415863990784e-01</leafValues></_>
        <_>
          <internalNodes>
            0 -1 24 7.7004946069791913e-04</internalNodes>
          <leafValues>
            -2.3969525098800659e-01 4.1443672776222229e-01</leafValues></_>
        <_>
          <internalNodes>
            0 -1 30 4.5954820234328508e-04</internalNodes>
          <leafValues>
            1.1234259605407715e-01 -8.9650106430053711e-01</leafValues></_></weakClassifiers></_>
    <!-- stage 11 -->
    <_>
      <maxWeakCount>12</maxWeakCount>
      <stageThreshold>-1.6651623249053955e+00</stageThreshold>
      <weakClassifiers>
        <_>
          <internalNodes>
            0 -1 40 -8.3751529455184937e-03</internalNodes>
          <leafValues>
            -3.6000001430511475e-01 -8.0074489116668701e-01</leafValues></_>
        <_>
          <internalNodes>
            0 -1 198 1.1405700817704201e-02</internalNodes>
          <leafValues>
            -5.1530474424362183e-01 1.1426126956939697e-01</leafValues></_>
        <_>
          <internalNodes>
            0 -1 49 -3.8254717364907265e-03</internalNodes>
          <leafValues>
            3.7009054422378540e-01 -2.6581859588623047e-01</leafValues></_>
        <_>
          <internalNodes>
            0 -1 203 1.8044469878077507e-02</internalNodes>
          <leafValues>
            1.2349522858858109e-01 -7.6920098066329956e-01</leafValues></_>
        <_>
          <internalNodes>
            0 -1 222 2.2556968033313751e-03</internalNodes>
          <leafValues>
            -2.7551043033599854e-01 2.9349863529205322e-01</leafValues></_>
        <_>
          <internalNodes>
            0 -1 59 5.6708320975303650e-02</internalNodes>
          <leafValues>
            -1.8691568076610565e-01 4.9119633436203003e-01</leafValues></_>
        <_>
          <internalNodes>
            0 -1 93 -2.2070989012718201e-02</internalNodes>
          <leafValues>
            4.5663949847221375e-01 -1.8910229206085205e-01</leafValues></_>
        <_>
          <internalNodes>
            0 -1 212 -1.7249102238565683e-03</internalNodes>
          <leafValues>
            4.4939622282981873e-01 -2.0783783495426178e-01</leafValues></_>
        <_>
          <internalNodes>
            0 -1 37 -1.1520748957991600e-03</internalNodes>
          <leafValues>
            3.7114405632019043e-01 -2.2105546295642853e-01</leafValues></_>
        <_>
          <internalNodes>
            0 -1 50 1.0622476693242788e-03</internalNodes>
          <leafValues>
            -2.4776978790760040e-01 5.0787156820297241e-01</leafValues></_>
        <_>
          <internalNodes>
            0 -1 29 -3.1709333416074514e-04</internalNodes>
          <leafValues>
            -6.3189285993576050e-01 1.5634566545486450e-01</leafValues></_>
        <_>
          <internalNodes>
            0 -1 6 8.9268537703901529e-04</internalNodes>
          <leafValues>
            -2.5670903921127319e-01 3.5811650753021240e-01</leafValues></_></weakClassifiers></_>
    <!-- stage 12 -->
    <_>
      <maxWeakCount>15</maxWeakCount>
      <stageThreshold>-1.6481014490127563e+00</stageThreshold>
      <weakClassifiers>
        <_>
          <internalNodes>
            0 -1 146 5.2106641232967377e-03</internalNodes>
          <leafValues>
            -7.4882262945175171e-01 -6.6666670143604279e-02</leafValues></_>
        <_>
          <internalNodes>
            0 -1 42 6.4422492869198322e-05</internalNodes>
          <leafValues>
            -5.5804800987243652e-01 2.5296838954091072e-02</leafValues></_>
        <_>
          <internalNodes>
            0 -1 205 1.8053483217954636e-03</internalNodes>
          <leafValues>
            -1.8970225751399994e-01 4.1558244824409485e-01</leafValues></_>
        <_>
          <internalNodes>
            0 -1 223 -5.6118133943527937e-04</internalNodes>
          <leafValues>
            -7.0173573493957520e-01 1.1373326182365417e-01</leafValues></_>
        <_>
          <internalNodes>
            0 -1 64 8.5780248045921326e-03</internalNodes>
          <leafValues>
            -1.3183906674385071e-01 4.9125483632087708e-01</leafValues></_>
        <_>
          <internalNodes>
            0 -1 195 -2.5303468573838472e-03</internalNodes>
          <leafValues>
            4.4416230916976929e-01 -1.7389532923698425e-01</leafValues></_>
        <_>
          <internalNodes>
            0 -1 163 -9.7900219261646271e-03</internalNodes>
          <leafValues>
            1.5797004103660583e-01 -5.4109370708465576e-01</leafValues></_>
        <_>
          <internalNodes>
            0 -1 33 1.3147491030395031e-02</internalNodes>
          <leafValues>
            9.8900958895683289e-02 -7.5446367263793945e-01</leafValues></_>
        <_>
          <internalNodes>
            0 -1 112 2.0104059949517250e-03</internalNodes>
          <leafValues>
            8.9791968464851379e-02 -6.9618499279022217e-01</leafValues></_>
        <_>
          <internalNodes>
            0 -1 41 -1.1761621863115579e-04</internalNodes>
          <leafValues>
            -4.6628478169441223e-01 1.4315976202487946e-01</leafValues></_>
        <_>
          <internalNodes>
            0 -1 51 -3.8423540536314249e-04</internalNodes>
          <leafValues>
            3.7777975201606750e-01 -1.9586978852748871e-01</leafValues></_>
        <_>
          <internalNodes>
            0 -1 189 2.1527206990867853e-04</internalNodes>
          <leafValues>
            -2.8796881437301636e-01 2.5242716073989868e-01</leafValues></_>
        <_>
          <internalNodes>
            0 -1 131 7.0462669245898724e-03</internalNodes>
          <leafValues>
            -1.6885399818420410e-01 4.3440544605255127e-01</leafValues></_>
        <_>
          <internalNodes>
            0 -1 132 -1.9008102826774120e-03</internalNodes>
          <leafValues>
            5.5056768655776978e-01 -1.7035165429115295e-01</leafValues></_>
        <_>
          <internalNodes>
            0 -1 119 -8.3747021853923798e-03</internalNodes>
          <leafValues>
            -8.2272326946258545e-01 1.0331790149211884e-01</leafValues></_></weakClassifiers></_>
    <!-- stage 13 -->
    <_>
      <maxWeakCount>17</maxWeakCount>
      <stageThreshold>-1.5475264787673950e+00</stageThreshold>
      <weakClassifiers>
        <_>
          <internalNodes>
            0 -1 139 2.1009963005781174e-02</internalNodes>
          <leafValues>
            -7.7644026279449463e-01 -3.0107527971267700e-01</leafValues></_>
        <_>
          <internalNodes>
            0 -1 65 -1.9444138160906732e-04</internalNodes>
          <leafValues>
            1.1760772904381156e-03 -5.3354793787002563e-01</leafValues></_>
        <_>
          <internalNodes>
            0 -1 221 4.5245152432471514e-04</internalNodes>
          <leafValues>
            -3.7563043832778931e-01 1.8192015588283539e-01</leafValues></_>
        <_>
          <internalNodes>
            0 -1 167 -3.2917105127125978e-03</internalNodes>
          <leafValues>
            4.1392377018928528e-01 -1.7080242931842804e-01</leafValues></_>
        <_>
          <internalNodes>
            0 -1 156 -3.4510160330682993e-03</internalNodes>
          <leafValues>
            4.1748553514480591e-01 -1.4406351745128632e-01</leafValues></_>
        <_>
          <internalNodes>
            0 -1 176 -1.9962921738624573e-02</internalNodes>
          <leafValues>
            3.1538140773773193e-01 -2.1714369952678680e-01</leafValues></_>
        <_>
          <internalNodes>
            0 -1 46 -2.1631080657243729e-02</internalNodes>
          <leafValues>
            5.4239308834075928e-01 -1.3288798928260803e-01</leafValues></_>
        <_>
          <internalNodes>
            0 -1 31 -1.7785616219043732e-02</internalNodes>
          <leafValues>
            5.0997954607009888e-01 -1.8221864104270935e-01</leafValues></_>
        <_>
          <internalNodes>
            0 -1 148 3.5946844145655632e-03</internalNodes>
          <leafValues>
            -2.0703759789466858e-01 3.9943364262580872e-01</leafValues></_>
        <_>
          <internalNodes>
            0 -1 105 -6.3109099864959717e-02</internalNodes>
          <leafValues>
            -7.8213709592819214e-01 9.4297140836715698e-02</leafValues></_>
        <_>
          <internalNodes>
            0 -1 70 2.9547726735472679e-03</internalNodes>
          <leafValues>
            -2.3899102210998535e-01 3.2317769527435303e-01</leafValues></_>
        <_>
          <internalNodes>
            0 -1 85 1.5146858058869839e-03</internalNodes>
          <leafValues>
            -1.9666625559329987e-01 3.9023080468177795e-01</leafValues></_>
        <_>
          <internalNodes>
            0 -1 63 -4.0876355022192001e-02</internalNodes>
          <leafValues>
            4.1715002059936523e-01 -1.8042021989822388e-01</leafValues></_>
        <_>
          <internalNodes>
            0 -1 206 2.6062212418764830e-03</internalNodes>
          <leafValues>
            -2.2335085272789001e-01 3.5010400414466858e-01</leafValues></_>
        <_>
          <internalNodes>
            0 -1 2 -4.2028278112411499e-03</internalNodes>
          <leafValues>
            4.7598168253898621e-01 -1.5416039526462555e-01</leafValues></_>
        <_>
          <internalNodes>
            0 -1 129 -4.6822473406791687e-02</internalNodes>
          <leafValues>
            -6.8248975276947021e-01 1.1514224112033844e-01</leafValues></_>
        <_>
          <internalNodes>
            0 -1 181 -1.2949641095474362e-03</internalNodes>
          <leafValues>
            3.9418315887451172e-01 -2.0408968627452850e-01</leafValues></_></weakClassifiers></_>
    <!-- stage 14 -->
    <_>
      <maxWeakCount>15</maxWeakCount>
      <stageThreshold>-1.6184968948364258e+00</stageThreshold>
      <weakClassifiers>
        <_>
          <internalNodes>
            0 -1 47 -2.1740618348121643e-01</internalNodes>
          <leafValues>
            6.0000002384185791e-01 -7.3062455654144287e-01</leafValues></_>
        <_>
          <internalNodes>
            0 -1 122 -1.0722306556999683e-02</internalNodes>
          <leafValues>
            -1.2386008165776730e-02 -5.3851598501205444e-01</leafValues></_>
        <_>
          <internalNodes>
            0 -1 168 1.3750169891864061e-03</internalNodes>
          <leafValues>
            8.3342961966991425e-02 -7.0884019136428833e-01</leafValues></_>
        <_>
          <internalNodes>
            0 -1 76 6.2037929892539978e-03</internalNodes>
          <leafValues>
            -1.7918948829174042e-01 3.9610865712165833e-01</leafValues></_>
        <_>
          <internalNodes>
            0 -1 141 3.0523013323545456e-02</internalNodes>
          <leafValues>
            -1.3783659040927887e-01 4.4081744551658630e-01</leafValues></_>
        <_>
          <internalNodes>
            0 -1 162 1.9444245845079422e-04</internalNodes>
          <leafValues>
            1.1715629696846008e-01 -5.3366017341613770e-01</leafValues></_>
        <_>
          <internalNodes>
            0 -1 38 -2.0984224975109100e-03</internalNodes>
          <leafValues>
            5.4318869113922119e-01 -1.2354648113250732e-01</leafValues></_>
        <_>
          <internalNodes>
            0 -1 8 -1.5388876199722290e-03</internalNodes>
          <leafValues>
            2.1493498980998993e-01 -3.0786985158920288e-01</leafValues></_>
        <_>
          <internalNodes>
            0 -1 0 -2.9702849686145782e-02</internalNodes>
          <leafValues>
            2.6297491788864136e-01 -2.5374257564544678e-01</leafValues></_>
        <_>
          <internalNodes>
            0 -1 98 5.6801638565957546e-03</internalNodes>
          <leafValues>
            -1.0703477263450623e-01 5.5606788396835327e-01</leafValues></_>
        <_>
          <internalNodes>
            0 -1 147 4.8703337088227272e-03</internalNodes>
          <leafValues>
            -1.7250441014766693e-01 3.6274635791778564e-01</leafValues></_>
        <_>
          <internalNodes>
            0 -1 99 -1.3812388293445110e-02</internalNodes>
          <leafValues>
            5.1599085330963135e-01 -1.3775223493576050e-01</leafValues></_>
        <_>
          <internalNodes>
            0 -1 116 -3.8293600082397461e-03</internalNodes>
          <leafValues>
            3.2884013652801514e-01 -2.0604316890239716e-01</leafValues></_>
        <_>
          <internalNodes>
            0 -1 44 -8.0480329692363739e-02</internalNodes>
          <leafValues>
            4.2847394943237305e-01 -1.9436372816562653e-01</leafValues></_>
        <_>
          <internalNodes>
            0 -1 120 1.6271152999252081e-03</internalNodes>
          <leafValues>
            -1.9822473824024200e-01 3.6167854070663452e-01</leafValues></_></weakClassifiers></_>
    <!-- stage 15 -->
    <_>
      <maxWeakCount>15</maxWeakCount>
      <stageThreshold>-1.6359901428222656e+00</stageThreshold>
      <weakClassifiers>
        <_>
          <internalNodes>
            0 -1 80 2.3038841784000397e-02</internalNodes>
          <leafValues>
            -7.6170909404754639e-01 -2.4242424964904785e-01</leafValues></_>
        <_>
          <internalNodes>
            0 -1 215 -2.6719500310719013e-03</internalNodes>
          <leafValues>
            2.5561439990997314e-01 -3.2400014996528625e-01</leafValues></_>
        <_>
          <internalNodes>
            0 -1 10 -1.2290801852941513e-02</internalNodes>
          <leafValues>
            1.7457520961761475e-01 -3.8822942972183228e-01</leafValues></_>
        <_>
          <internalNodes>
            0 -1 108 -4.6798966825008392e-02</internalNodes>
          <leafValues>
            4.6353134512901306e-01 -1.5374904870986938e-01</leafValues></_>
        <_>
          <internalNodes>
            0 -1 192 1.6945856623351574e-03</internalNodes>
          <leafValues>
            1.6647593677043915e-01 -4.9238997697830200e-01</leafValues></_>
        <_>
          <internalNodes>
            0 -1 165 -1.1654349043965340e-02</internalNodes>
          <leafValues>
            1.9953083992004395e-01 -3.5490435361862183e-01</leafValues></_>
        <_>
          <internalNodes>
            0 -1 185 -9.8808966577053070e-03</internalNodes>
          <leafValues>
            2.7978685498237610e-01 -2.4659569561481476e-01</leafValues></_>
        <_>
          <internalNodes>
            0 -1 111 -9.8815150558948517e-03</internalNodes>
          <leafValues>
            4.0592616796493530e-01 -1.7042155563831329e-01</leafValues></_>
        <_>
          <internalNodes>
            0 -1 83 1.1268686503171921e-03</internalNodes>
          <leafValues>
            8.7978169322013855e-02 -7.9703485965728760e-01</leafValues></_>
        <_>
          <internalNodes>
            0 -1 154 -5.0745171029120684e-04</internalNodes>
          <leafValues>
            4.5515069365501404e-01 -1.5560126304626465e-01</leafValues></_>
        <_>
          <internalNodes>
            0 -1 69 -5.7057184167206287e-03</internalNodes>
          <leafValues>
            2.0367996394634247e-01 -3.2959946990013123e-01</leafValues></_>
        <_>
          <internalNodes>
            0 -1 88 1.3909783214330673e-02</internalNodes>
          <leafValues>
            -1.4684914052486420e-01 4.7411638498306274e-01</leafValues></_>
        <_>
          <internalNodes>
            0 -1 124 -3.5738334991037846e-03</internalNodes>
          <leafValues>
            4.6325036883354187e-01 -1.4146588742733002e-01</leafValues></_>
        <_>
          <internalNodes>
            0 -1 78 -5.5510347010567784e-04</internalNodes>
          <leafValues>
            3.0524322390556335e-01 -2.0358943939208984e-01</leafValues></_>
        <_>
          <internalNodes>
            0 -1 220 5.3134071640670300e-04</internalNodes>
          <leafValues>
            -1.6424892842769623e-01 4.2804741859436035e-01</leafValues></_></weakClassifiers></_>
    <!-- stage 16 -->
    <_>
      <maxWeakCount>18</maxWeakCount>
      <stageThreshold>-1.5791349411010742e+00</stageThreshold>
      <weakClassifiers>
        <_>
          <internalNodes>
            0 -1 58 -2.9164719581604004e-01</internalNodes>
          <leafValues>
            5.6521737575531006e-01 -7.3303169012069702e-01</leafValues></_>
        <_>
          <internalNodes>
            0 -1 110 -6.3564311712980270e-03</internalNodes>
          <leafValues>
            1.1499483138322830e-01 -3.8131406903266907e-01</leafValues></_>
        <_>
          <internalNodes>
            0 -1 90 9.8802876891568303e-05</internalNodes>
          <leafValues>
            1.4351296424865723e-01 -3.8960459828376770e-01</leafValues></_>
        <_>
          <internalNodes>
            0 -1 86 1.3826275244355202e-02</internalNodes>
          <leafValues>
            -1.2455766648054123e-01 4.7423070669174194e-01</leafValues></_>
        <_>
          <internalNodes>
            0 -1 1 8.0604236572980881e-03</internalNodes>
          <leafValues>
            -1.4625960588455200e-01 4.2067795991897583e-01</leafValues></_>
        <_>
          <internalNodes>
            0 -1 18 1.1476878717076033e-04</internalNodes>
          <leafValues>
            1.7303705215454102e-01 -4.6214994788169861e-01</leafValues></_>
        <_>
          <internalNodes>
            0 -1 54 -1.7658666474744678e-03</internalNodes>
          <leafValues>
            4.1933166980743408e-01 -1.6865414381027222e-01</leafValues></_>
        <_>
          <internalNodes>
            0 -1 106 3.6610839888453484e-03</internalNodes>
          <leafValues>
            -1.7964954674243927e-01 3.8203746080398560e-01</leafValues></_>
        <_>
          <internalNodes>
            0 -1 77 -1.2064203619956970e-02</internalNodes>
          <leafValues>
            3.3460634946823120e-01 -1.7248247563838959e-01</leafValues></_>
        <_>
          <internalNodes>
            0 -1 95 6.6412973683327436e-04</internalNodes>
          <leafValues>
            9.6432022750377655e-02 -6.6901129484176636e-01</leafValues></_>
        <_>
          <internalNodes>
            0 -1 79 -6.8570440635085106e-03</internalNodes>
          <leafValues>
            6.5956932306289673e-01 -1.1271797865629196e-01</leafValues></_>
        <_>
          <internalNodes>
            0 -1 75 2.1195376757532358e-03</internalNodes>
          <leafValues>
            -1.8791243433952332e-01 3.7367960810661316e-01</leafValues></_>
        <_>
          <internalNodes>
            0 -1 175 -3.0592568218708038e-03</internalNodes>
          <leafValues>
            4.4552543759346008e-01 -1.5749184787273407e-01</leafValues></_>
        <_>
          <internalNodes>
            0 -1 118 1.8832279369235039e-02</internalNodes>
          <leafValues>
            8.4691025316715240e-02 -8.1546938419342041e-01</leafValues></_>
        <_>
          <internalNodes>
            0 -1 204 -7.8040203079581261e-03</internalNodes>
          <leafValues>
            4.8363298177719116e-01 -1.5127773582935333e-01</leafValues></_>
        <_>
          <internalNodes>
            0 -1 213 -6.7348580341786146e-04</internalNodes>
          <leafValues>
            4.1573619842529297e-01 -1.6818131506443024e-01</leafValues></_>
        <_>
          <internalNodes>
            0 -1 219 -1.0458037722855806e-03</internalNodes>
          <leafValues>
            -7.7685761451721191e-01 9.7314551472663879e-02</leafValues></_>
        <_>
          <internalNodes>
            0 -1 128 -1.5715157496742904e-04</internalNodes>
          <leafValues>
            2.3827889561653137e-01 -3.2361653447151184e-01</leafValues></_></weakClassifiers></_>
    <!-- stage 17 -->
    <_>
      <maxWeakCount>18</maxWeakCount>
      <stageThreshold>-1.6146656274795532e+00</stageThreshold>
      <weakClassifiers>
        <_>
          <internalNodes>
            0 -1 109 1.2123306095600128e-01</internalNodes>
          <leafValues>
            -7.3688215017318726e-01 2.9411765933036804e-01</leafValues></_>
        <_>
          <internalNodes>
            0 -1 172 -8.1101134419441223e-03</internalNodes>
          <leafValues>
            2.5783962011337280e-01 -3.4959739446640015e-01</leafValues></_>
        <_>
          <internalNodes>
            0 -1 196 7.3847556486725807e-03</internalNodes>
          <leafValues>
            -1.3102790713310242e-01 5.3364640474319458e-01</leafValues></_>
        <_>
          <internalNodes>
            0 -1 4 -9.0431317687034607e-02</internalNodes>
          <leafValues>
            -4.5235571265220642e-01 1.4961758255958557e-01</leafValues></_>
        <_>
          <internalNodes>
            0 -1 66 8.6581148207187653e-03</internalNodes>
          <leafValues>
            -1.5073753893375397e-01 4.3738600611686707e-01</leafValues></_>
        <_>
          <internalNodes>
            0 -1 3 -3.6294166930019855e-03</internalNodes>
          <leafValues>
            2.9053786396980286e-01 -2.8182423114776611e-01</leafValues></_>
        <_>
          <internalNodes>
            0 -1 183 1.1356539092957973e-02</internalNodes>
          <leafValues>
            -2.6035565137863159e-01 2.7047255635261536e-01</leafValues></_>
        <_>
          <internalNodes>
            0 -1 144 -5.5802688002586365e-03</internalNodes>
          <leafValues>
            3.1479510664939880e-01 -1.9393579661846161e-01</leafValues></_>
        <_>
          <internalNodes>
            0 -1 179 -9.4843395054340363e-03</internalNodes>
          <leafValues>
            5.3602004051208496e-01 -1.1863625049591064e-01</leafValues></_>
        <_>
          <internalNodes>
            0 -1 102 1.7809681594371796e-04</internalNodes>
          <leafValues>
            1.3555090129375458e-01 -4.5019379258155823e-01</leafValues></_>
        <_>
          <internalNodes>
            0 -1 5 9.3670263886451721e-03</internalNodes>
          <leafValues>
            -1.2520711123943329e-01 5.1124966144561768e-01</leafValues></_>
        <_>
          <internalNodes>
            0 -1 174 -7.6805159915238619e-04</internalNodes>
          <leafValues>
            -4.4397142529487610e-01 1.6141135990619659e-01</leafValues></_>
        <_>
          <internalNodes>
            0 -1 160 -1.2725975830107927e-03</internalNodes>
          <leafValues>
            4.1842305660247803e-01 -1.6002419590950012e-01</leafValues></_>
        <_>
          <internalNodes>
            0 -1 35 4.3265251442790031e-03</internalNodes>
          <leafValues>
            7.8785069286823273e-02 -8.5112208127975464e-01</leafValues></_>
        <_>
          <internalNodes>
            0 -1 23 -3.5858587361872196e-03</internalNodes>
          <leafValues>
            3.3124077320098877e-01 -1.8921136856079102e-01</leafValues></_>
        <_>
          <internalNodes>
            0 -1 87 2.3543862625956535e-03</internalNodes>
          <leafValues>
            6.5361931920051575e-02 -9.1541397571563721e-01</leafValues></_>
        <_>
          <internalNodes>
            0 -1 155 -4.0459088981151581e-02</internalNodes>
          <leafValues>
            7.8705573081970215e-01 -9.3513518571853638e-02</leafValues></_>
        <_>
          <internalNodes>
            0 -1 190 3.3186704968102276e-04</internalNodes>
          <leafValues>
            -2.9500862956047058e-01 2.1878729760646820e-01</leafValues></_></weakClassifiers></_>
    <!-- stage 18 -->
    <_>
      <maxWeakCount>17</maxWeakCount>
      <stageThreshold>-1.6492387056350708e+00</stageThreshold>
      <weakClassifiers>
        <_>
          <internalNodes>
            0 -1 96 3.3706799149513245e-02</internalNodes>
          <leafValues>
            -7.3720395565032959e-01 1.5000000596046448e-01</leafValues></_>
        <_>
          <internalNodes>
            0 -1 194 -7.4382647871971130e-03</internalNodes>
          <leafValues>
            1.5808655321598053e-01 -3.3182546496391296e-01</leafValues></_>
        <_>
          <internalNodes>
            0 -1 157 -8.1865675747394562e-03</internalNodes>
          <leafValues>
            3.0405604839324951e-01 -1.8455603718757629e-01</leafValues></_>
        <_>
          <internalNodes>
            0 -1 103 9.4614960253238678e-03</internalNodes>
          <leafValues>
            6.2881343066692352e-02 -8.7764030694961548e-01</leafValues></_>
        <_>
          <internalNodes>
            0 -1 59 6.3517272472381592e-02</internalNodes>
          <leafValues>
            -1.3605184853076935e-01 4.0772643685340881e-01</leafValues></_>
        <_>
          <internalNodes>
            0 -1 159 5.2659429609775543e-02</internalNodes>
          <leafValues>
            7.6772615313529968e-02 -7.9669910669326782e-01</leafValues></_>
        <_>
          <internalNodes>
            0 -1 171 -2.3079060018062592e-02</internalNodes>
          <leafValues>
            -9.4879072904586792e-01 7.2555206716060638e-02</leafValues></_>
        <_>
          <internalNodes>
            0 -1 217 -3.4734234213829041e-04</internalNodes>
          <leafValues>
            3.3888444304466248e-01 -1.8493060767650604e-01</leafValues></_>
        <_>
          <internalNodes>
            0 -1 17 -2.2090966813266277e-03</internalNodes>
          <leafValues>
            -6.8897885084152222e-01 7.6284550130367279e-02</leafValues></_>
        <_>
          <internalNodes>
            0 -1 97 -4.0392976254224777e-02</internalNodes>
          <leafValues>
            -8.7966805696487427e-01 5.8686465024948120e-02</leafValues></_>
        <_>
          <internalNodes>
            0 -1 152 -6.1629811534658074e-04</internalNodes>
          <leafValues>
            3.3601310849189758e-01 -1.7445816099643707e-01</leafValues></_>
        <_>
          <internalNodes>
            0 -1 68 -5.5534124374389648e-02</internalNodes>
          <leafValues>
            -8.3049994707107544e-01 7.4771121144294739e-02</leafValues></_>
        <_>
          <internalNodes>
            0 -1 142 -1.5333549818024039e-03</internalNodes>
          <leafValues>
            -8.0707609653472900e-01 5.7538185268640518e-02</leafValues></_>
        <_>
          <internalNodes>
            0 -1 218 2.7541583403944969e-03</internalNodes>
          <leafValues>
            -2.5285109877586365e-01 2.2878651320934296e-01</leafValues></_>
        <_>
          <internalNodes>
            0 -1 184 5.0954944454133511e-03</internalNodes>
          <leafValues>
            -1.4418287575244904e-01 3.9367243647575378e-01</leafValues></_>
        <_>
          <internalNodes>
            0 -1 158 -1.9993912428617477e-03</internalNodes>
          <leafValues>
            -9.2215669155120850e-01 6.5883323550224304e-02</leafValues></_>
        <_>
          <internalNodes>
            0 -1 7 1.5111512038856745e-03</internalNodes>
          <leafValues>
            -1.8938983976840973e-01 3.4311708807945251e-01</leafValues></_></weakClassifiers></_>
    <!-- stage 19 -->
    <_>
      <maxWeakCount>12</maxWeakCount>
      <stageThreshold>-1.4133204221725464e+00</stageThreshold>
      <weakClassifiers>
        <_>
          <internalNodes>
            0 -1 182 -1.2629717588424683e-02</internalNodes>
          <leafValues>
            5.0000000000000000e-01 -7.2911965847015381e-01</leafValues></_>
        <_>
          <internalNodes>
            0 -1 104 3.3802399411797523e-03</internalNodes>
          <leafValues>
            -3.4172248840332031e-01 2.0446701347827911e-01</leafValues></_>
        <_>
          <internalNodes>
            0 -1 150 1.0124473273754120e-01</internalNodes>
          <leafValues>
            5.8862142264842987e-02 -8.9437651634216309e-01</leafValues></_>
        <_>
          <internalNodes>
            0 -1 94 -5.4244333878159523e-03</internalNodes>
          <leafValues>
            3.4279152750968933e-01 -1.5970250964164734e-01</leafValues></_>
        <_>
          <internalNodes>
            0 -1 197 1.8049363046884537e-02</internalNodes>
          <leafValues>
            6.0189343988895416e-02 -9.2654567956924438e-01</leafValues></_>
        <_>
          <internalNodes>
            0 -1 60 -1.7309935763478279e-02</internalNodes>
          <leafValues>
            4.0223503112792969e-01 -1.5481667220592499e-01</leafValues></_>
        <_>
          <internalNodes>
            0 -1 145 -1.0567079298198223e-03</internalNodes>
          <leafValues>
            4.0040785074234009e-01 -1.6279198229312897e-01</leafValues></_>
        <_>
          <internalNodes>
            0 -1 135 1.4986874535679817e-02</internalNodes>
          <leafValues>
            7.4097678065299988e-02 -7.4475663900375366e-01</leafValues></_>
        <_>
          <internalNodes>
            0 -1 72 5.6583501398563385e-02</internalNodes>
          <leafValues>
            -9.3707665801048279e-02 5.9129226207733154e-01</leafValues></_>
        <_>
          <internalNodes>
            0 -1 137 -9.5547316595911980e-04</internalNodes>
          <leafValues>
            3.5333907604217529e-01 -1.6776627302169800e-01</leafValues></_>
        <_>
          <internalNodes>
            0 -1 126 -3.6521488800644875e-03</internalNodes>
          <leafValues>
            5.0522261857986450e-01 -1.1031440645456314e-01</leafValues></_>
        <_>
          <internalNodes>
            0 -1 67 -1.4056817162781954e-03</internalNodes>
          <leafValues>
            -8.6797642707824707e-01 6.6632479429244995e-02</leafValues></_></weakClassifiers></_></stages>
  <features>
    <_>
      <rects>
        <_>
          0 2 5 21 -1.</_>
        <_>
          0 9 5 7 3.</_></rects>
      <tilted>0</tilted></_>
    <_>
      <rects>
        <_>
          0 3 6 6 -1.</_>
        <_>
          0 3 3 3 2.</_>
        <_>
          3 6 3 3 2.</_></rects>
      <tilted>0</tilted></_>
    <_>
      <rects>
        <_>
          0 5 3 7 -1.</_>
        <_>
          1 5 1 7 3.</_></rects>
      <tilted>0</tilted></_>
    <_>
      <rects>
        <_>
          0 6 1 18 -1.</_>
        <_>
          0 12 1 6 3.</_></rects>
      <tilted>0</tilted></_>
    <_>
      <rects>
        <_>
          0 6 20 18 -1.</_>
        <_>
          0 12 20 6 3.</_></rects>
      <tilted>0</tilted></_>
    <_>
      <rects>
        <_>
          0 7 4 5 -1.</_>
        <_>
          2 7 2 5 2.</_></rects>
      <tilted>0</tilted></_>
    <_>
      <rects>
        <_>
          0 9 3 4 -1.</_>
        <_>
          1 9 1 4 3.</_></rects>
      <tilted>0</tilted></_>
    <_>
      <rects>
        <_>
          0 9 2 5 -1.</_>
        <_>
          1 9 1 5 2.</_></rects>
      <tilted>0</tilted></_>
    <_>
      <rects>
        <_>
          0 10 8 4 -1.</_>
        <_>
          0 12 8 2 2.</_></rects>
      <tilted>0</tilted></_>
    <_>
      <rects>
        <_>
          0 12 1 12 -1.</_>
        <_>
          0 18 1 6 2.</_></rects>
      <tilted>0</tilted></_>
    <_>
      <rects>
        <_>
          0 14 12 10 -1.</_>
        <_>
          6 14 6 10 2.</_></rects>
      <tilted>0</tilted></_>
    <_>
      <rects>
        <_>
          0 16 3 2 -1.</_>
        <_>
          1 16 1 2 3.</_></rects>
      <tilted>0</tilted></_>
    <_>
      <rects>
        <_>
          0 16 12 8 -1.</_>
        <_>
          6 16 6 8 2.</_></rects>
      <tilted>0</tilted></_>
    <_>
      <rects>
        <_>
          0 17 8 6 -1.</_>
        <_>
          4 17 4 6 2.</_></rects>
      <tilted>0</tilted></_>
    <_>
      <rects>
        <_>
          0 17 14 6 -1.</_>
        <_>
          0 19 14 2 3.</_></rects>
      <tilted>0</tilted></_>
    <_>
      <rects>
        <_>
          0 18 4 3 -1.</_>
        <_>
          2 18 2 3 2.</_></rects>
      <tilted>0</tilted></_>
    <_>
      <rects>
        <_>
          0 18 8 4 -1.</_>
        <_>
          4 18 4 4 2.</_></rects>
      <tilted>0</tilted></_>
    <_>
      <rects>
        <_>
          0 21 6 3 -1.</_>
        <_>
          2 21 2 3 3.</_></rects>
      <tilted>0</tilted></_>
    <_>
      <rects>
        <_>
          0 22 2 1 -1.</_>
        <_>
          1 22 1 1 2.</_></rects>
      <tilted>0</tilted></_>
    <_>
      <rects>
        <_>
          0 22 3 2 -1.</_>
        <_>
          1 22 1 2 3.</_></rects>
      <tilted>0</tilted></_>
    <_>
      <rects>
        <_>
          0 23 2 1 -1.</_>
        <_>
          1 23 1 1 2.</_></rects>
      <tilted>0</tilted></_>
    <_>
      <rects>
        <_>
          1 2 12 5 -1.</_>
        <_>
          7 2 6 5 2.</_></rects>
      <tilted>0</tilted></_>
    <_>
      <rects>
        <_>
          1 3 19 2 -1.</_>
        <_>
          1 4 19 1 2.</_></rects>
      <tilted>0</tilted></_>
    <_>
      <rects>
        <_>
          1 6 2 15 -1.</_>
        <_>
          2 6 1 15 2.</_></rects>
      <tilted>0</tilted></_>
    <_>
      <rects>
        <_>
          1 7 3 3 -1.</_>
        <_>
          2 7 1 3 3.</_></rects>
      <tilted>0</tilted></_>
    <_>
      <rects>
        <_>
          1 11 10 6 -1.</_>
        <_>
          1 13 10 2 3.</_></rects>
      <tilted>0</tilted></_>
    <_>
      <rects>
        <_>
          1 15 4 6 -1.</_>
        <_>
          3 15 2 6 2.</_></rects>
      <tilted>0</tilted></_>
    <_>
      <rects>
        <_>
          1 18 8 6 -1.</_>
        <_>
          5 18 4 6 2.</_></rects>
      <tilted>0</tilted></_>
    <_>
      <rects>
        <_>
          1 18 26 6 -1.</_>
        <_>
          1 20 26 2 3.</_></rects>
      <tilted>0</tilted></_>
    <_>
      <rects>
        <_>
          1 22 3 2 -1.</_>
        <_>
          2 22 1 2 3.</_></rects>
      <tilted>0</tilted></_>
    <_>
      <rects>
        <_>
          1 23 3 1 -1.</_>
        <_>
          2 23 1 1 3.</_></rects>
      <tilted>0</tilted></_>
    <_>
      <rects>
        <_>
          2 2 6 6 -1.</_>
        <_>
          2 5 6 3 2.</_></rects>
      <tilted>0</tilted></_>
    <_>
      <rects>
        <_>
          2 2 9 6 -1.</_>
        <_>
          2 4 9 2 3.</_></rects>
      <tilted>0</tilted></_>
    <_>
      <rects>
        <_>
          2 8 9 6 -1.</_>
        <_>
          2 11 9 3 2.</_></rects>
      <tilted>0</tilted></_>
    <_>
      <rects>
        <_>
          2 9 3 1 -1.</_>
        <_>
          3 9 1 1 3.</_></rects>
      <tilted>0</tilted></_>
    <_>
      <rects>
        <_>
          2 11 4 4 -1.</_>
        <_>
          2 11 2 2 2.</_>
        <_>
          4 13 2 2 2.</_></rects>
      <tilted>0</tilted></_>
    <_>
      <rects>
        <_>
          2 12 12 12 -1.</_>
        <_>
          2 16 12 4 3.</_></rects>
      <tilted>0</tilted></_>
    <_>
      <rects>
        <_>
          2 14 3 3 -1.</_>
        <_>
          2 15 3 1 3.</_></rects>
      <tilted>0</tilted></_>
    <_>
      <rects>
        <_>
          2 15 3 2 -1.</_>
        <_>
          3 15 1 2 3.</_></rects>
      <tilted>0</tilted></_>
    <_>
      <rects>
        <_>
          2 16 3 1 -1.</_>
        <_>
          3 16 1 1 3.</_></rects>
      <tilted>0</tilted></_>
    <_>
      <rects>
        <_>
          2 21 22 3 -1.</_>
        <_>
          2 22 22 1 3.</_></rects>
      <tilted>0</tilted></_>
    <_>
      <rects>
        <_>
          2 22 3 2 -1.</_>
        <_>
          3 22 1 2 3.</_></rects>
      <tilted>0</tilted></_>
    <_>
      <rects>
        <_>
          2 22 7 2 -1.</_>
        <_>
          2 23 7 1 2.</_></rects>
      <tilted>0</tilted></_>
    <_>
      <rects>
        <_>
          2 23 2 1 -1.</_>
        <_>
          3 23 1 1 2.</_></rects>
      <tilted>0</tilted></_>
    <_>
      <rects>
        <_>
          3 0 13 8 -1.</_>
        <_>
          3 4 13 4 2.</_></rects>
      <tilted>0</tilted></_>
    <_>
      <rects>
        <_>
          3 4 2 16 -1.</_>
        <_>
          3 12 2 8 2.</_></rects>
      <tilted>0</tilted></_>
    <_>
      <rects>
        <_>
          3 4 18 4 -1.</_>
        <_>
          3 4 9 2 2.</_>
        <_>
          12 6 9 2 2.</_></rects>
      <tilted>0</tilted></_>
    <_>
      <rects>
        <_>
          3 6 9 18 -1.</_>
        <_>
          3 12 9 6 3.</_></rects>
      <tilted>0</tilted></_>
    <_>
      <rects>
        <_>
          3 7 24 2 -1.</_>
        <_>
          11 7 8 2 3.</_></rects>
      <tilted>0</tilted></_>
    <_>
      <rects>
        <_>
          3 13 4 10 -1.</_>
        <_>
          3 13 2 5 2.</_>
        <_>
          5 18 2 5 2.</_></rects>
      <tilted>0</tilted></_>
    <_>
      <rects>
        <_>
          3 14 2 3 -1.</_>
        <_>
          3 15 2 1 3.</_></rects>
      <tilted>0</tilted></_>
    <_>
      <rects>
        <_>
          3 15 3 1 -1.</_>
        <_>
          4 15 1 1 3.</_></rects>
      <tilted>0</tilted></_>
    <_>
      <rects>
        <_>
          3 18 9 6 -1.</_>
        <_>
          3 20 9 2 3.</_></rects>
      <tilted>0</tilted></_>
    <_>
      <rects>
        <_>
          3 18 23 6 -1.</_>
        <_>
          3 20 23 2 3.</_></rects>
      <tilted>0</tilted></_>
    <_>
      <rects>
        <_>
          3 19 6 2 -1.</_>
        <_>
          3 19 3 1 2.</_>
        <_>
          6 20 3 1 2.</_></rects>
      <tilted>0</tilted></_>
    <_>
      <rects>
        <_>
          4 1 7 9 -1.</_>
        <_>
          4 4 7 3 3.</_></rects>
      <tilted>0</tilted></_>
    <_>
      <rects>
        <_>
          4 1 10 6 -1.</_>
        <_>
          4 3 10 2 3.</_></rects>
      <tilted>0</tilted></_>
    <_>
      <rects>
        <_>
          4 5 24 18 -1.</_>
        <_>
          4 14 24 9 2.</_></rects>
      <tilted>0</tilted></_>
    <_>
      <rects>
        <_>
          4 8 18 15 -1.</_>
        <_>
          4 13 18 5 3.</_></rects>
      <tilted>0</tilted></_>
    <_>
      <rects>
        <_>
          4 10 28 10 -1.</_>
        <_>
          4 10 14 5 2.</_>
        <_>
          18 15 14 5 2.</_></rects>
      <tilted>0</tilted></_>
    <_>
      <rects>
        <_>
          4 11 9 6 -1.</_>
        <_>
          4 13 9 2 3.</_></rects>
      <tilted>0</tilted></_>
    <_>
      <rects>
        <_>
          4 18 5 6 -1.</_>
        <_>
          4 20 5 2 3.</_></rects>
      <tilted>0</tilted></_>
    <_>
      <rects>
        <_>
          4 18 12 2 -1.</_>
        <_>
          4 19 12 1 2.</_></rects>
      <tilted>0</tilted></_>
    <_>
      <rects>
        <_>
          4 18 14 6 -1.</_>
        <_>
          4 20 14 2 3.</_></rects>
      <tilted>0</tilted></_>
    <_>
      <rects>
        <_>
          4 18 22 3 -1.</_>
        <_>
          4 19 22 1 3.</_></rects>
      <tilted>0</tilted></_>
    <_>
      <rects>
        <_>
          4 19 2 4 -1.</_>
        <_>
          5 19 1 4 2.</_></rects>
      <tilted>0</tilted></_>
    <_>
      <rects>
        <_>
          4 20 24 2 -1.</_>
        <_>
          4 20 12 1 2.</_>
        <_>
          16 21 12 1 2.</_></rects>
      <tilted>0</tilted></_>
    <_>
      <rects>
        <_>
          5 0 3 1 -1.</_>
        <_>
          6 0 1 1 3.</_></rects>
      <tilted>0</tilted></_>
    <_>
      <rects>
        <_>
          5 0 18 6 -1.</_>
        <_>
          11 0 6 6 3.</_></rects>
      <tilted>0</tilted></_>
    <_>
      <rects>
        <_>
          5 3 1 18 -1.</_>
        <_>
          5 12 1 9 2.</_></rects>
      <tilted>0</tilted></_>
    <_>
      <rects>
        <_>
          5 3 3 6 -1.</_>
        <_>
          5 6 3 3 2.</_></rects>
      <tilted>0</tilted></_>
    <_>
      <rects>
        <_>
          5 3 9 4 -1.</_>
        <_>
          5 5 9 2 2.</_></rects>
      <tilted>0</tilted></_>
    <_>
      <rects>
        <_>
          5 5 24 5 -1.</_>
        <_>
          13 5 8 5 3.</_></rects>
      <tilted>0</tilted></_>
    <_>
      <rects>
        <_>
          5 6 24 4 -1.</_>
        <_>
          13 6 8 4 3.</_></rects>
      <tilted>0</tilted></_>
    <_>
      <rects>
        <_>
          5 7 21 3 -1.</_>
        <_>
          12 7 7 3 3.</_></rects>
      <tilted>0</tilted></_>
    <_>
      <rects>
        <_>
          5 14 4 6 -1.</_>
        <_>
          5 14 2 3 2.</_>
        <_>
          7 17 2 3 2.</_></rects>
      <tilted>0</tilted></_>
    <_>
      <rects>
        <_>
          5 15 10 4 -1.</_>
        <_>
          5 15 5 2 2.</_>
        <_>
          10 17 5 2 2.</_></rects>
      <tilted>0</tilted></_>
    <_>
      <rects>
        <_>
          5 16 12 6 -1.</_>
        <_>
          9 16 4 6 3.</_></rects>
      <tilted>0</tilted></_>
    <_>
      <rects>
        <_>
          5 18 2 2 -1.</_>
        <_>
          5 19 2 1 2.</_></rects>
      <tilted>0</tilted></_>
    <_>
      <rects>
        <_>
          5 18 6 2 -1.</_>
        <_>
          7 18 2 2 3.</_></rects>
      <tilted>0</tilted></_>
    <_>
      <rects>
        <_>
          5 19 20 4 -1.</_>
        <_>
          5 19 10 2 2.</_>
        <_>
          15 21 10 2 2.</_></rects>
      <tilted>0</tilted></_>
    <_>
      <rects>
        <_>
          5 19 21 2 -1.</_>
        <_>
          5 20 21 1 2.</_></rects>
      <tilted>0</tilted></_>
    <_>
      <rects>
        <_>
          5 21 24 3 -1.</_>
        <_>
          13 21 8 3 3.</_></rects>
      <tilted>0</tilted></_>
    <_>
      <rects>
        <_>
          5 22 3 2 -1.</_>
        <_>
          6 22 1 2 3.</_></rects>
      <tilted>0</tilted></_>
    <_>
      <rects>
        <_>
          5 22 20 2 -1.</_>
        <_>
          5 23 20 1 2.</_></rects>
      <tilted>0</tilted></_>
    <_>
      <rects>
        <_>
          6 1 1 6 -1.</_>
        <_>
          6 3 1 2 3.</_></rects>
      <tilted>0</tilted></_>
    <_>
      <rects>
        <_>
          6 3 16 4 -1.</_>
        <_>
          6 3 8 2 2.</_>
        <_>
          14 5 8 2 2.</_></rects>
      <tilted>0</tilted></_>
    <_>
      <rects>
        <_>
          6 8 4 2 -1.</_>
        <_>
          6 8 2 1 2.</_>
        <_>
          8 9 2 1 2.</_></rects>
      <tilted>0</tilted></_>
    <_>
      <rects>
        <_>
          6 8 6 12 -1.</_>
        <_>
          8 8 2 12 3.</_></rects>
      <tilted>0</tilted></_>
    <_>
      <rects>
        <_>
          6 20 3 4 -1.</_>
        <_>
          6 22 3 2 2.</_></rects>
      <tilted>0</tilted></_>
    <_>
      <rects>
        <_>
          6 21 3 2 -1.</_>
        <_>
          7 21 1 2 3.</_></rects>
      <tilted>0</tilted></_>
    <_>
      <rects>
        <_>
          6 23 2 1 -1.</_>
        <_>
          7 23 1 1 2.</_></rects>
      <tilted>0</tilted></_>
    <_>
      <rects>
        <_>
          7 0 19 6 -1.</_>
        <_>
          7 3 19 3 2.</_></rects>
      <tilted>0</tilted></_>
    <_>
      <rects>
        <_>
          7 1 9 6 -1.</_>
        <_>
          7 3 9 2 3.</_></rects>
      <tilted>0</tilted></_>
    <_>
      <rects>
        <_>
          7 2 8 2 -1.</_>
        <_>
          7 3 8 1 2.</_></rects>
      <tilted>0</tilted></_>
    <_>
      <rects>
        <_>
          7 11 2 2 -1.</_>
        <_>
          7 11 1 1 2.</_>
        <_>
          8 12 1 1 2.</_></rects>
      <tilted>0</tilted></_>
    <_>
      <rects>
        <_>
          7 12 2 12 -1.</_>
        <_>
          7 16 2 4 3.</_></rects>
      <tilted>0</tilted></_>
    <_>
      <rects>
        <_>
          7 14 14 6 -1.</_>
        <_>
          7 16 14 2 3.</_></rects>
      <tilted>0</tilted></_>
    <_>
      <rects>
        <_>
          7 18 4 4 -1.</_>
        <_>
          9 18 2 4 2.</_></rects>
      <tilted>0</tilted></_>
    <_>
      <rects>
        <_>
          7 19 22 2 -1.</_>
        <_>
          7 20 22 1 2.</_></rects>
      <tilted>0</tilted></_>
    <_>
      <rects>
        <_>
          7 21 14 3 -1.</_>
        <_>
          7 22 14 1 3.</_></rects>
      <tilted>0</tilted></_>
    <_>
      <rects>
        <_>
          7 21 15 3 -1.</_>
        <_>
          7 22 15 1 3.</_></rects>
      <tilted>0</tilted></_>
    <_>
      <rects>
        <_>
          7 22 4 2 -1.</_>
        <_>
          9 22 2 2 2.</_></rects>
      <tilted>0</tilted></_>
    <_>
      <rects>
        <_>
          8 1 6 4 -1.</_>
        <_>
          10 1 2 4 3.</_></rects>
      <tilted>0</tilted></_>
    <_>
      <rects>
        <_>
          8 6 6 3 -1.</_>
        <_>
          10 6 2 3 3.</_></rects>
      <tilted>0</tilted></_>
    <_>
      <rects>
        <_>
          8 6 22 8 -1.</_>
        <_>
          8 10 22 4 2.</_></rects>
      <tilted>0</tilted></_>
    <_>
      <rects>
        <_>
          8 13 4 6 -1.</_>
        <_>
          8 13 2 3 2.</_>
        <_>
          10 16 2 3 2.</_></rects>
      <tilted>0</tilted></_>
    <_>
      <rects>
        <_>
          8 15 8 6 -1.</_>
        <_>
          8 17 8 2 3.</_></rects>
      <tilted>0</tilted></_>
    <_>
      <rects>
        <_>
          8 17 17 6 -1.</_>
        <_>
          8 19 17 2 3.</_></rects>
      <tilted>0</tilted></_>
    <_>
      <rects>
        <_>
          8 17 18 6 -1.</_>
        <_>
          8 20 18 3 2.</_></rects>
      <tilted>0</tilted></_>
    <_>
      <rects>
        <_>
          8 21 15 3 -1.</_>
        <_>
          8 22 15 1 3.</_></rects>
      <tilted>0</tilted></_>
    <_>
      <rects>
        <_>
          8 22 21 1 -1.</_>
        <_>
          15 22 7 1 3.</_></rects>
      <tilted>0</tilted></_>
    <_>
      <rects>
        <_>
          8 23 12 1 -1.</_>
        <_>
          12 23 4 1 3.</_></rects>
      <tilted>0</tilted></_>
    <_>
      <rects>
        <_>
          9 0 9 9 -1.</_>
        <_>
          9 3 9 3 3.</_></rects>
      <tilted>0</tilted></_>
    <_>
      <rects>
        <_>
          9 0 12 15 -1.</_>
        <_>
          9 5 12 5 3.</_></rects>
      <tilted>0</tilted></_>
    <_>
      <rects>
        <_>
          9 0 23 6 -1.</_>
        <_>
          9 3 23 3 2.</_></rects>
      <tilted>0</tilted></_>
    <_>
      <rects>
        <_>
          9 14 1 9 -1.</_>
        <_>
          9 17 1 3 3.</_></rects>
      <tilted>0</tilted></_>
    <_>
      <rects>
        <_>
          9 17 15 4 -1.</_>
        <_>
          9 19 15 2 2.</_></rects>
      <tilted>0</tilted></_>
    <_>
      <rects>
        <_>
          10 0 9 5 -1.</_>
        <_>
          13 0 3 5 3.</_></rects>
      <tilted>0</tilted></_>
    <_>
      <rects>
        <_>
          10 1 9 2 -1.</_>
        <_>
          13 1 3 2 3.</_></rects>
      <tilted>0</tilted></_>
    <_>
      <rects>
        <_>
          10 4 5 3 -1.</_>
        <_>
          10 5 5 1 3.</_></rects>
      <tilted>0</tilted></_>
    <_>
      <rects>
        <_>
          10 4 21 6 -1.</_>
        <_>
          17 4 7 6 3.</_></rects>
      <tilted>0</tilted></_>
    <_>
      <rects>
        <_>
          10 12 10 12 -1.</_>
        <_>
          10 18 10 6 2.</_></rects>
      <tilted>0</tilted></_>
    <_>
      <rects>
        <_>
          10 15 6 3 -1.</_>
        <_>
          13 15 3 3 2.</_></rects>
      <tilted>0</tilted></_>
    <_>
      <rects>
        <_>
          11 0 1 6 -1.</_>
        <_>
          11 2 1 2 3.</_></rects>
      <tilted>0</tilted></_>
    <_>
      <rects>
        <_>
          11 14 3 4 -1.</_>
        <_>
          12 14 1 4 3.</_></rects>
      <tilted>0</tilted></_>
    <_>
      <rects>
        <_>
          11 15 6 1 -1.</_>
        <_>
          13 15 2 1 3.</_></rects>
      <tilted>0</tilted></_>
    <_>
      <rects>
        <_>
          11 17 9 1 -1.</_>
        <_>
          14 17 3 1 3.</_></rects>
      <tilted>0</tilted></_>
    <_>
      <rects>
        <_>
          11 21 4 3 -1.</_>
        <_>
          13 21 2 3 2.</_></rects>
      <tilted>0</tilted></_>
    <_>
      <rects>
        <_>
          12 14 20 10 -1.</_>
        <_>
          22 14 10 10 2.</_></rects>
      <tilted>0</tilted></_>
    <_>
      <rects>
        <_>
          12 15 3 2 -1.</_>
        <_>
          13 15 1 2 3.</_></rects>
      <tilted>0</tilted></_>
    <_>
      <rects>
        <_>
          12 15 6 6 -1.</_>
        <_>
          14 15 2 6 3.</_></rects>
      <tilted>0</tilted></_>
    <_>
      <rects>
        <_>
          12 16 6 1 -1.</_>
        <_>
          14 16 2 1 3.</_></rects>
      <tilted>0</tilted></_>
    <_>
      <rects>
        <_>
          13 14 4 3 -1.</_>
        <_>
          13 15 4 1 3.</_></rects>
      <tilted>0</tilted></_>
    <_>
      <rects>
        <_>
          13 15 18 3 -1.</_>
        <_>
          13 16 18 1 3.</_></rects>
      <tilted>0</tilted></_>
    <_>
      <rects>
        <_>
          13 20 18 4 -1.</_>
        <_>
          19 20 6 4 3.</_></rects>
      <tilted>0</tilted></_>
    <_>
      <rects>
        <_>
          14 0 6 22 -1.</_>
        <_>
          14 11 6 11 2.</_></rects>
      <tilted>0</tilted></_>
    <_>
      <rects>
        <_>
          14 15 3 2 -1.</_>
        <_>
          15 15 1 2 3.</_></rects>
      <tilted>0</tilted></_>
    <_>
      <rects>
        <_>
          14 18 12 6 -1.</_>
        <_>
          14 18 6 3 2.</_>
        <_>
          20 21 6 3 2.</_></rects>
      <tilted>0</tilted></_>
    <_>
      <rects>
        <_>
          14 19 16 4 -1.</_>
        <_>
          14 19 8 2 2.</_>
        <_>
          22 21 8 2 2.</_></rects>
      <tilted>0</tilted></_>
    <_>
      <rects>
        <_>
          15 0 15 8 -1.</_>
        <_>
          15 4 15 4 2.</_></rects>
      <tilted>0</tilted></_>
    <_>
      <rects>
        <_>
          15 5 14 5 -1.</_>
        <_>
          22 5 7 5 2.</_></rects>
      <tilted>0</tilted></_>
    <_>
      <rects>
        <_>
          15 6 1 3 -1.</_>
        <_>
          15 7 1 1 3.</_></rects>
      <tilted>0</tilted></_>
    <_>
      <rects>
        <_>
          15 13 3 3 -1.</_>
        <_>
          15 14 3 1 3.</_></rects>
      <tilted>0</tilted></_>
    <_>
      <rects>
        <_>
          15 13 6 9 -1.</_>
        <_>
          15 16 6 3 3.</_></rects>
      <tilted>0</tilted></_>
    <_>
      <rects>
        <_>
          15 15 3 2 -1.</_>
        <_>
          16 15 1 2 3.</_></rects>
      <tilted>0</tilted></_>
    <_>
      <rects>
        <_>
          15 15 6 1 -1.</_>
        <_>
          17 15 2 1 3.</_></rects>
      <tilted>0</tilted></_>
    <_>
      <rects>
        <_>
          15 19 13 3 -1.</_>
        <_>
          15 20 13 1 3.</_></rects>
      <tilted>0</tilted></_>
    <_>
      <rects>
        <_>
          16 5 15 3 -1.</_>
        <_>
          16 6 15 1 3.</_></rects>
      <tilted>0</tilted></_>
    <_>
      <rects>
        <_>
          16 14 7 3 -1.</_>
        <_>
          16 15 7 1 3.</_></rects>
      <tilted>0</tilted></_>
    <_>
      <rects>
        <_>
          16 14 16 10 -1.</_>
        <_>
          24 14 8 10 2.</_></rects>
      <tilted>0</tilted></_>
    <_>
      <rects>
        <_>
          16 15 4 3 -1.</_>
        <_>
          16 16 4 1 3.</_></rects>
      <tilted>0</tilted></_>
    <_>
      <rects>
        <_>
          16 16 3 1 -1.</_>
        <_>
          17 16 1 1 3.</_></rects>
      <tilted>0</tilted></_>
    <_>
      <rects>
        <_>
          16 16 2 6 -1.</_>
        <_>
          16 16 1 3 2.</_>
        <_>
          17 19 1 3 2.</_></rects>
      <tilted>0</tilted></_>
    <_>
      <rects>
        <_>
          16 19 2 1 -1.</_>
        <_>
          17 19 1 1 2.</_></rects>
      <tilted>0</tilted></_>
    <_>
      <rects>
        <_>
          17 2 4 8 -1.</_>
        <_>
          17 6 4 4 2.</_></rects>
      <tilted>0</tilted></_>
    <_>
      <rects>
        <_>
          17 15 6 4 -1.</_>
        <_>
          19 15 2 4 3.</_></rects>
      <tilted>0</tilted></_>
    <_>
      <rects>
        <_>
          17 15 9 6 -1.</_>
        <_>
          20 15 3 6 3.</_></rects>
      <tilted>0</tilted></_>
    <_>
      <rects>
        <_>
          17 22 4 2 -1.</_>
        <_>
          19 22 2 2 2.</_></rects>
      <tilted>0</tilted></_>
    <_>
      <rects>
        <_>
          18 6 12 16 -1.</_>
        <_>
          18 14 12 8 2.</_></rects>
      <tilted>0</tilted></_>
    <_>
      <rects>
        <_>
          18 7 3 2 -1.</_>
        <_>
          19 7 1 2 3.</_></rects>
      <tilted>0</tilted></_>
    <_>
      <rects>
        <_>
          18 19 3 3 -1.</_>
        <_>
          18 20 3 1 3.</_></rects>
      <tilted>0</tilted></_>
    <_>
      <rects>
        <_>
          18 23 3 1 -1.</_>
        <_>
          19 23 1 1 3.</_></rects>
      <tilted>0</tilted></_>
    <_>
      <rects>
        <_>
          19 0 8 8 -1.</_>
        <_>
          19 4 8 4 2.</_></rects>
      <tilted>0</tilted></_>
    <_>
      <rects>
        <_>
          19 0 12 8 -1.</_>
        <_>
          19 4 12 4 2.</_></rects>
      <tilted>0</tilted></_>
    <_>
      <rects>
        <_>
          19 0 12 21 -1.</_>
        <_>
          19 7 12 7 3.</_></rects>
      <tilted>0</tilted></_>
    <_>
      <rects>
        <_>
          19 8 5 6 -1.</_>
        <_>
          19 11 5 3 2.</_></rects>
      <tilted>0</tilted></_>
    <_>
      <rects>
        <_>
          19 14 6 2 -1.</_>
        <_>
          21 14 2 2 3.</_></rects>
      <tilted>0</tilted></_>
    <_>
      <rects>
        <_>
          19 23 6 1 -1.</_>
        <_>
          21 23 2 1 3.</_></rects>
      <tilted>0</tilted></_>
    <_>
      <rects>
        <_>
          20 0 1 6 -1.</_>
        <_>
          20 3 1 3 2.</_></rects>
      <tilted>0</tilted></_>
    <_>
      <rects>
        <_>
          20 1 6 6 -1.</_>
        <_>
          20 3 6 2 3.</_></rects>
      <tilted>0</tilted></_>
    <_>
      <rects>
        <_>
          20 9 8 6 -1.</_>
        <_>
          20 12 8 3 2.</_></rects>
      <tilted>0</tilted></_>
    <_>
      <rects>
        <_>
          20 13 6 8 -1.</_>
        <_>
          22 13 2 8 3.</_></rects>
      <tilted>0</tilted></_>
    <_>
      <rects>
        <_>
          20 15 2 2 -1.</_>
        <_>
          20 16 2 1 2.</_></rects>
      <tilted>0</tilted></_>
    <_>
      <rects>
        <_>
          21 0 6 1 -1.</_>
        <_>
          23 0 2 1 3.</_></rects>
      <tilted>0</tilted></_>
    <_>
      <rects>
        <_>
          21 4 10 2 -1.</_>
        <_>
          21 4 5 1 2.</_>
        <_>
          26 5 5 1 2.</_></rects>
      <tilted>0</tilted></_>
    <_>
      <rects>
        <_>
          21 7 9 16 -1.</_>
        <_>
          24 7 3 16 3.</_></rects>
      <tilted>0</tilted></_>
    <_>
      <rects>
        <_>
          21 12 6 7 -1.</_>
        <_>
          23 12 2 7 3.</_></rects>
      <tilted>0</tilted></_>
    <_>
      <rects>
        <_>
          21 16 6 2 -1.</_>
        <_>
          23 16 2 2 3.</_></rects>
      <tilted>0</tilted></_>
    <_>
      <rects>
        <_>
          21 18 4 4 -1.</_>
        <_>
          21 20 4 2 2.</_></rects>
      <tilted>0</tilted></_>
    <_>
      <rects>
        <_>
          21 18 7 3 -1.</_>
        <_>
          21 19 7 1 3.</_></rects>
      <tilted>0</tilted></_>
    <_>
      <rects>
        <_>
          21 19 4 3 -1.</_>
        <_>
          23 19 2 3 2.</_></rects>
      <tilted>0</tilted></_>
    <_>
      <rects>
        <_>
          21 21 9 1 -1.</_>
        <_>
          24 21 3 1 3.</_></rects>
      <tilted>0</tilted></_>
    <_>
      <rects>
        <_>
          22 5 10 4 -1.</_>
        <_>
          27 5 5 4 2.</_></rects>
      <tilted>0</tilted></_>
    <_>
      <rects>
        <_>
          22 6 6 5 -1.</_>
        <_>
          24 6 2 5 3.</_></rects>
      <tilted>0</tilted></_>
    <_>
      <rects>
        <_>
          22 13 6 6 -1.</_>
        <_>
          22 16 6 3 2.</_></rects>
      <tilted>0</tilted></_>
    <_>
      <rects>
        <_>
          22 14 9 9 -1.</_>
        <_>
          22 17 9 3 3.</_></rects>
      <tilted>0</tilted></_>
    <_>
      <rects>
        <_>
          22 19 10 4 -1.</_>
        <_>
          27 19 5 4 2.</_></rects>
      <tilted>0</tilted></_>
    <_>
      <rects>
        <_>
          22 20 10 4 -1.</_>
        <_>
          27 20 5 4 2.</_></rects>
      <tilted>0</tilted></_>
    <_>
      <rects>
        <_>
          22 22 3 2 -1.</_>
        <_>
          22 23 3 1 2.</_></rects>
      <tilted>0</tilted></_>
    <_>
      <rects>
        <_>
          22 22 9 2 -1.</_>
        <_>
          22 23 9 1 2.</_></rects>
      <tilted>0</tilted></_>
    <_>
      <rects>
        <_>
          23 0 9 14 -1.</_>
        <_>
          23 7 9 7 2.</_></rects>
      <tilted>0</tilted></_>
    <_>
      <rects>
        <_>
          23 10 4 6 -1.</_>
        <_>
          23 13 4 3 2.</_></rects>
      <tilted>0</tilted></_>
    <_>
      <rects>
        <_>
          23 12 4 12 -1.</_>
        <_>
          23 16 4 4 3.</_></rects>
      <tilted>0</tilted></_>
    <_>
      <rects>
        <_>
          23 15 6 6 -1.</_>
        <_>
          25 15 2 6 3.</_></rects>
      <tilted>0</tilted></_>
    <_>
      <rects>
        <_>
          23 18 5 2 -1.</_>
        <_>
          23 19 5 1 2.</_></rects>
      <tilted>0</tilted></_>
    <_>
      <rects>
        <_>
          24 4 5 4 -1.</_>
        <_>
          24 6 5 2 2.</_></rects>
      <tilted>0</tilted></_>
    <_>
      <rects>
        <_>
          24 8 6 8 -1.</_>
        <_>
          24 12 6 4 2.</_></rects>
      <tilted>0</tilted></_>
    <_>
      <rects>
        <_>
          24 17 8 6 -1.</_>
        <_>
          28 17 4 6 2.</_></rects>
      <tilted>0</tilted></_>
    <_>
      <rects>
        <_>
          24 18 1 6 -1.</_>
        <_>
          24 20 1 2 3.</_></rects>
      <tilted>0</tilted></_>
    <_>
      <rects>
        <_>
          24 20 3 4 -1.</_>
        <_>
          24 22 3 2 2.</_></rects>
      <tilted>0</tilted></_>
    <_>
      <rects>
        <_>
          24 23 2 1 -1.</_>
        <_>
          25 23 1 1 2.</_></rects>
      <tilted>0</tilted></_>
    <_>
      <rects>
        <_>
          24 23 3 1 -1.</_>
        <_>
          25 23 1 1 3.</_></rects>
      <tilted>0</tilted></_>
    <_>
      <rects>
        <_>
          25 3 7 16 -1.</_>
        <_>
          25 11 7 8 2.</_></rects>
      <tilted>0</tilted></_>
    <_>
      <rects>
        <_>
          25 4 3 4 -1.</_>
        <_>
          25 6 3 2 2.</_></rects>
      <tilted>0</tilted></_>
    <_>
      <rects>
        <_>
          25 8 6 1 -1.</_>
        <_>
          27 8 2 1 3.</_></rects>
      <tilted>0</tilted></_>
    <_>
      <rects>
        <_>
          25 18 4 6 -1.</_>
        <_>
          25 20 4 2 3.</_></rects>
      <tilted>0</tilted></_>
    <_>
      <rects>
        <_>
          25 19 5 4 -1.</_>
        <_>
          25 21 5 2 2.</_></rects>
      <tilted>0</tilted></_>
    <_>
      <rects>
        <_>
          26 0 3 20 -1.</_>
        <_>
          26 10 3 10 2.</_></rects>
      <tilted>0</tilted></_>
    <_>
      <rects>
        <_>
          26 13 4 8 -1.</_>
        <_>
          26 13 2 4 2.</_>
        <_>
          28 17 2 4 2.</_></rects>
      <tilted>0</tilted></_>
    <_>
      <rects>
        <_>
          26 15 4 6 -1.</_>
        <_>
          26 17 4 2 3.</_></rects>
      <tilted>0</tilted></_>
    <_>
      <rects>
        <_>
          26 16 6 6 -1.</_>
        <_>
          29 16 3 6 2.</_></rects>
      <tilted>0</tilted></_>
    <_>
      <rects>
        <_>
          27 11 3 6 -1.</_>
        <_>
          28 11 1 6 3.</_></rects>
      <tilted>0</tilted></_>
    <_>
      <rects>
        <_>
          27 17 3 1 -1.</_>
        <_>
          28 17 1 1 3.</_></rects>
      <tilted>0</tilted></_>
    <_>
      <rects>
        <_>
          27 18 4 4 -1.</_>
        <_>
          29 18 2 4 2.</_></rects>
      <tilted>0</tilted></_>
    <_>
      <rects>
        <_>
          28 16 3 5 -1.</_>
        <_>
          29 16 1 5 3.</_></rects>
      <tilted>0</tilted></_>
    <_>
      <rects>
        <_>
          28 17 4 2 -1.</_>
        <_>
          30 17 2 2 2.</_></rects>
      <tilted>0</tilted></_>
    <_>
      <rects>
        <_>
          28 18 2 2 -1.</_>
        <_>
          28 18 1 1 2.</_>
        <_>
          29 19 1 1 2.</_></rects>
      <tilted>0</tilted></_>
    <_>
      <rects>
        <_>
          28 18 4 5 -1.</_>
        <_>
          30 18 2 5 2.</_></rects>
      <tilted>0</tilted></_>
    <_>
      <rects>
        <_>
          28 21 3 3 -1.</_>
        <_>
          29 21 1 3 3.</_></rects>
      <tilted>0</tilted></_>
    <_>
      <rects>
        <_>
          29 5 2 1 -1.</_>
        <_>
          30 5 1 1 2.</_></rects>
      <tilted>0</tilted></_>
    <_>
      <rects>
        <_>
          29 17 2 6 -1.</_>
        <_>
          29 20 2 3 2.</_></rects>
      <tilted>0</tilted></_>
    <_>
      <rects>
        <_>
          29 18 2 6 -1.</_>
        <_>
          29 21 2 3 2.</_></rects>
      <tilted>0</tilted></_>
    <_>
      <rects>
        <_>
          29 22 3 2 -1.</_>
        <_>
          30 22 1 2 3.</_></rects>
      <tilted>0</tilted></_>
    <_>
      <rects>
        <_>
          30 21 2 3 -1.</_>
        <_>
          31 21 1 3 2.</_></rects>
      <tilted>0</tilted></_></features></cascade>
</opencv_storage>
